{"0.weight": [[2.016496181488037, -1.1707569360733032, -0.9261664748191833, 0.8128612637519836, -0.16484038531780243, 0.11398951709270477, 0.07009875774383545, -0.19243425130844116, -2.1434664726257324, -0.6138864755630493, -1.149106740951538, -0.44133785367012024, 0.18982499837875366, 0.22278526425361633, -0.06385622173547745, -0.619284987449646, -2.01411509513855, -1.7900054454803467, -1.0708768367767334, -1.329336166381836, 0.2760302722454071, -0.46396782994270325, 0.33769798278808594, -0.7189711928367615, -1.3362945318222046, -4.194077491760254, -2.624626636505127, -2.103318929672241, -1.7125033140182495, 1.4185084104537964, 0.0904119610786438, -0.0033427218440920115, -1.2016795873641968, -1.6150493621826172, -1.008406162261963, -3.0382020473480225, -2.6376240253448486, -0.308505654335022, -0.42571815848350525, 0.4519655406475067, -0.8071645498275757, -0.34966737031936646, 0.47883713245391846, 0.9127814769744873, -1.1981688737869263, 0.38884925842285156, -0.3078460097312927, -0.422217458486557, -0.5178300142288208, 0.2855198085308075, -0.09673826396465302, 0.6688088774681091, -0.09345455467700958, 0.2631498873233795, -0.755236804485321, -0.4063813090324402, 0.5766915082931519, -0.7698012590408325, -0.8956871032714844, 0.8262943029403687, 0.5390389561653137, 0.03667584806680679, -0.5559245347976685, 0.8978737592697144, 2.1622202396392822, -0.5316081643104553, -0.4866328835487366, 0.19187036156654358, -0.04564131796360016, -0.17870676517486572, 0.700805127620697, -0.7568677663803101, -1.587119460105896, -1.5338060855865479, -1.5288712978363037, -0.27066102623939514, 0.04415208473801613, 0.10740780085325241, -0.23410066962242126, -0.30336621403694153, -1.5576348304748535, -0.272431880235672, -0.7469015717506409, -0.9920147061347961, -0.2394537478685379, 0.06316065788269043, 0.8039491176605225, 0.07159212231636047, -0.3040660619735718, 0.8958612084388733, -1.3021918535232544, -1.5664395093917847, -2.4195716381073, 1.4424724578857422, -0.40418297052383423, 0.3181590735912323, -0.8233528137207031, 0.020979415625333786, -0.7829643487930298, -3.05078387260437, -3.2392330169677734, 0.8440027832984924, -0.5558404922485352, 0.7222378849983215, -0.345155268907547, -0.18580342829227448, -0.5322427153587341, 0.5353020429611206, -1.0345240831375122, 0.3824498951435089, -0.29286471009254456, 0.23573048412799835, -0.13035660982131958, -0.18653081357479095, -0.18136301636695862, 0.5313682556152344, -0.04444758594036102, -0.3770703375339508, -0.6941068768501282, -0.3098244071006775, 0.9293134808540344, -0.16591398417949677, -0.3432523012161255, 0.33694157004356384, 0.363584041595459, -0.6542814373970032, 0.3664407432079315, 0.025207355618476868, -6.3707594871521, -8.865335464477539, -10.767578125, -7.586786270141602, -10.983477592468262, -11.694724082946777, -10.031454086303711, -9.63647747039795, -7.096158981323242, -5.8028974533081055, -6.317253589630127, -8.249666213989258, -11.105589866638184, -9.872857093811035, -9.255088806152344, -11.043580055236816, -5.482357501983643, -3.1786937713623047, -7.450520038604736, -9.195520401000977, -11.077188491821289, -9.6726655960083, -11.197858810424805, -10.400121688842773, -3.2894787788391113, -4.288149356842041, -9.945110321044922, 0.07864819467067719, 0.055964481085538864, -8.542383193969727, -11.569278717041016, -10.692033767700195, -3.314462184906006, -5.3049211502075195, -9.543089866638184, 0.14003418385982513, 0.13299916684627533, -8.283059120178223, -10.53066635131836, -10.490062713623047, -8.081328392028809, -9.783393859863281, -9.88448429107666, -10.35098648071289, -9.709600448608398, -8.563286781311035, -10.498947143554688, -11.712444305419922, -8.054946899414062, -8.195490837097168, -10.191715240478516, -7.940115451812744, -10.459532737731934, -8.468195915222168, -9.265530586242676, -11.199945449829102, -7.614678859710693, -10.07474422454834, -11.15800952911377, -7.70469856262207, -9.091266632080078, -12.28341293334961, -10.820030212402344, -8.75999927520752], [2.872366189956665, -1.6756588220596313, 0.14152665436267853, 0.5325684547424316, 1.559207797050476, -0.495425820350647, -1.111405372619629, 3.2981059551239014, -1.1881901025772095, -0.02327815257012844, 0.9517326354980469, 0.5565111637115479, -1.0155644416809082, 1.441498041152954, -0.707200825214386, 1.056746482849121, 1.4205752611160278, -0.4332287609577179, 0.9590341448783875, 0.7368668913841248, 4.501851558685303, 0.8344347476959229, 0.11112381517887115, 0.6978151798248291, 0.6337043642997742, 0.8654711842536926, 1.2500663995742798, 3.6908047199249268, 0.14835067093372345, -1.2113534212112427, 0.3524043560028076, -0.6111471056938171, 0.9389017820358276, -0.6180591583251953, 0.09534554928541183, 1.7999837398529053, 1.8040627241134644, -3.0210068225860596, 0.08400952816009521, 0.2322654128074646, -0.303859144449234, 2.8318238258361816, -0.17424273490905762, -0.8955117464065552, -2.9327008724212646, -2.9244775772094727, -1.0388249158859253, -0.7747976779937744, -1.092586636543274, 0.045985959470272064, -1.5225411653518677, -0.19304819405078888, -0.20723186433315277, -0.2632814347743988, 1.5739268064498901, 0.024078499525785446, 3.600238800048828, 0.15963289141654968, 0.3733721673488617, -0.804899275302887, -0.7673380374908447, -1.0678088665008545, 0.4719609022140503, 5.236723899841309, 3.3797013759613037, -0.6935459971427917, 0.9209689497947693, 0.9495528936386108, 0.7416198253631592, 0.08954329043626785, -0.18624165654182434, 1.5005124807357788, -0.6432664394378662, -1.4779996871948242, 1.2847408056259155, 0.14056995511054993, -0.6470963358879089, 1.1471048593521118, -0.24202072620391846, 1.1706478595733643, 1.4926639795303345, -0.000910555652808398, 2.3268330097198486, 0.09584634006023407, 3.9265263080596924, 1.5001931190490723, 1.6038686037063599, 1.2890681028366089, 1.1915568113327026, -0.5055872797966003, 1.7795534133911133, 1.7409783601760864, 0.13308043777942657, -1.0183457136154175, -0.7456099987030029, 0.04751643165946007, -0.1975567787885666, -0.3136015832424164, 0.4184500277042389, 0.6688845157623291, 1.924978256225586, -2.948793411254883, -0.47020450234413147, 2.2579541206359863, 0.46161967515945435, 0.941144585609436, -0.021723736077547073, -2.592507839202881, -1.090661644935608, 0.3184993863105774, -1.8808844089508057, -0.6507037878036499, -0.08890818059444427, -0.4630575478076935, 0.5965175032615662, -0.18262338638305664, 0.8026779890060425, -1.9350053071975708, -0.5502607822418213, -0.15435658395290375, 2.2091171741485596, 0.6767421960830688, -0.38070592284202576, -1.9570543766021729, 0.7671306729316711, -0.22727306187152863, -0.1804078072309494, 2.2465248107910156, 6.3558735847473145, 0.05829106271266937, -1.1381915807724, 4.4884538650512695, 4.863698482513428, 3.5072433948516846, 0.8605755567550659, 4.667516231536865, -0.01641903817653656, 3.1580750942230225, 6.973091125488281, 1.6309093236923218, 1.2268308401107788, 4.727228164672852, 3.4804906845092773, -0.9873000979423523, -2.1743288040161133, 6.558065891265869, 7.085050106048584, 7.244626998901367, 4.770544528961182, 1.9919644594192505, 7.785740375518799, -7.117079734802246, 1.5567208528518677, 2.7298083305358887, 2.3552334308624268, -0.13473817706108093, -0.12423693388700485, 3.6357500553131104, 7.523111343383789, 3.1454145908355713, 5.979138374328613, -2.218599796295166, 5.809376239776611, -0.05992700904607773, -0.12607935070991516, 6.870785713195801, 10.945904731750488, 4.066847801208496, -2.0646138191223145, 7.3540143966674805, 6.217048168182373, 4.036250591278076, 5.727296352386475, 10.023335456848145, 5.269104957580566, -1.1761558055877686, 1.3049312829971313, 2.773610830307007, 6.282352447509766, 8.221681594848633, 10.696481704711914, 8.056183815002441, 0.9718767404556274, -4.354497909545898, 5.7901458740234375, -2.458937644958496, -5.370859622955322, 6.596993923187256, 4.0398268699646, 5.164841651916504, -3.7418832778930664, 6.5484137535095215], [1.2669180631637573, 0.424369215965271, -0.5763896107673645, 0.2999231815338135, 0.46717607975006104, -1.1210923194885254, -0.07627660781145096, 1.0126335620880127, 0.10639671981334686, -0.3796316087245941, 0.4400295317173004, 0.21390071511268616, 0.20038986206054688, 0.276335746049881, -0.4988267123699188, -0.04732643440365791, -0.3461624085903168, -0.4677099287509918, 0.14467786252498627, -0.6163429021835327, -0.42907896637916565, 0.37313520908355713, 0.05881066620349884, -0.2369459569454193, 0.3823968768119812, -0.06496819853782654, 0.18121936917304993, 1.5331079959869385, 1.8603354692459106, -0.046557895839214325, -0.4746715724468231, 1.0691055059432983, 0.2283555269241333, 0.11112163215875626, 0.7378873229026794, 2.0647222995758057, 1.758748173713684, -1.9956754446029663, -0.2308422178030014, 0.6624004244804382, -0.0470566563308239, -0.09685828536748886, 1.1114816665649414, -1.4051730632781982, -1.7880818843841553, 1.0135788917541504, -0.3553586006164551, -0.08376461267471313, 0.3135257959365845, -0.3201729655265808, 0.39735278487205505, -0.2907574474811554, -0.4919191598892212, -0.24303580820560455, -0.29326915740966797, 0.11781123280525208, 1.6335569620132446, 0.4540790915489197, -0.29629579186439514, 0.11223046481609344, 0.47206130623817444, -0.7872940897941589, 0.3038257360458374, 1.4973777532577515, 1.2011507749557495, 0.021340062841773033, -0.4528072774410248, 1.0386570692062378, 0.09105511009693146, -0.5206251740455627, 0.007039847318083048, 0.7215501070022583, -0.5875043869018555, -0.2766476273536682, 0.20826873183250427, 0.5963849425315857, -0.39191117882728577, -0.01005047932267189, 0.11050306260585785, 0.5169599056243896, 0.10534261167049408, -0.43910327553749084, 0.1250208616256714, -0.46613386273384094, -0.5580857396125793, 0.3696231544017792, -0.014971286058425903, 0.09120844304561615, 0.3885660171508789, 0.3400444984436035, 0.576481819152832, 1.5260971784591675, 1.8558348417282104, 0.24619151651859283, -0.05939628183841705, -0.09216254949569702, 0.313539981842041, -0.28403258323669434, 0.8945851922035217, 1.9617208242416382, 1.9702107906341553, -1.8832597732543945, -0.13767790794372559, 0.7909388542175293, 0.0781862810254097, -0.7934000492095947, 0.9182773232460022, -1.2367780208587646, -1.437645673751831, 0.23422981798648834, -0.2562282979488373, -0.14545530080795288, 0.39974093437194824, 0.17759689688682556, 0.033135320991277695, 0.1977975219488144, -0.2523498237133026, -0.3080742657184601, -0.3909858763217926, 0.41007891297340393, 1.373068928718567, 0.13014160096645355, -0.5891581773757935, 0.31384024024009705, 0.550701916217804, -0.42508357763290405, 0.4219888150691986, 0.3270798325538635, 8.103039741516113, 7.3790283203125, 0.32354849576950073, 8.871342658996582, 9.529345512390137, 8.431344985961914, 7.921128749847412, 8.19318675994873, 5.889732360839844, 4.553654670715332, 1.9091566801071167, 6.423891544342041, 3.51298189163208, 7.290822505950928, 7.348250389099121, 6.812676429748535, 4.149130821228027, 6.03458833694458, 9.606566429138184, 3.17704176902771, 6.973766326904297, 8.661124229431152, 8.219711303710938, -0.3058415651321411, 8.163036346435547, 3.7623908519744873, 8.907649993896484, -0.29358747601509094, -0.31879493594169617, 8.1027250289917, 8.122113227844238, -3.1619033813476562, 7.537896156311035, 4.089007377624512, 8.92844009399414, -0.2692379057407379, -0.2897867262363434, 6.572239398956299, 0.6510248184204102, -0.5976138710975647, 2.357482433319092, 5.087751865386963, 8.046476364135742, 2.6929218769073486, 5.966246128082275, 8.129841804504395, 4.2532267570495605, 1.7287070751190186, 6.387637138366699, 5.346307754516602, 0.4182494282722473, 5.492658615112305, 0.5500816702842712, 2.169555425643921, 6.373775482177734, 5.149965763092041, 8.494133949279785, 1.622604489326477, 0.9289844036102295, -2.49033784866333, -2.0363194942474365, 2.892896890640259, 3.9064114093780518, 8.882984161376953], [-0.13457952439785004, 0.2929013669490814, -0.6654704213142395, 0.18284015357494354, 0.0670614168047905, -0.6286319494247437, 0.22399868071079254, -0.24776683747768402, 0.3103259205818176, -0.22682282328605652, 0.2056414633989334, 0.08586560189723969, -0.006021381355822086, 0.18594029545783997, 0.14957965910434723, 0.260610967874527, -0.6590514779090881, 0.3914552330970764, 0.13637858629226685, 0.137436643242836, 0.22619302570819855, 0.10362236201763153, 0.3034853935241699, -0.6090543866157532, 0.20936430990695953, 0.06085486337542534, 0.23447741568088531, -1.8476463556289673, -2.8268728256225586, 0.2908899486064911, 0.10693994164466858, 0.30604517459869385, 0.10828319936990738, -0.01360858790576458, 0.3124620020389557, -4.792805194854736, -1.1579368114471436, 0.3495415449142456, 0.05138540267944336, 0.23537710309028625, -0.749405026435852, 0.22422412037849426, 0.12610723078250885, 0.23948903381824493, 0.2314337193965912, 0.031383391469717026, 0.3510291278362274, -0.6418059468269348, 0.35884562134742737, -0.10579049587249756, 0.2268119752407074, 0.055328622460365295, 0.03525245934724808, 0.2848997116088867, 0.035776976495981216, 0.15937833487987518, -0.23759299516677856, 0.2185794860124588, -0.550544023513794, 0.21926242113113403, 0.17476825416088104, -0.6413853764533997, 0.2135545015335083, -0.12616214156150818, -0.2916560173034668, 0.4208959639072418, -0.3914928734302521, 0.3694593906402588, 0.27764931321144104, -0.48333242535591125, 0.09430166333913803, -0.46198412775993347, 0.3114224374294281, -0.12049137055873871, 0.10653813183307648, -0.1062532514333725, -0.001116183353587985, 0.1452304869890213, -0.10939878225326538, 0.18006156384944916, -0.402591347694397, 0.2530142366886139, 0.10099256783723831, 0.1965692639350891, 0.17682994902133942, -0.05876731500029564, 0.22638638317584991, -0.46572139859199524, 0.21038229763507843, 0.023854082450270653, 0.21167567372322083, -1.7482796907424927, -2.974895715713501, 0.30633631348609924, -0.009554757736623287, 0.44241902232170105, 0.30871132016181946, -0.10766736418008804, 0.10462944954633713, -4.843769550323486, -1.2683043479919434, 0.288844496011734, -0.0047224280424416065, 0.4956144094467163, -0.3431040048599243, 0.4161512553691864, 0.028615325689315796, 0.23673155903816223, 0.1919730007648468, -0.09577123075723648, 0.29058849811553955, -0.4665866792201996, 0.2064250260591507, -0.08845400810241699, 0.14025191962718964, 0.00875784270465374, 0.0178042221814394, 0.22190923988819122, -0.12440059334039688, 0.1485828459262848, -0.2682982087135315, 0.3422735631465912, -0.34153905510902405, 0.38838908076286316, 0.32905635237693787, -0.3789992928504944, 0.043582018464803696, -0.3216354548931122, -0.1285855621099472, 2.619004249572754, 22.921770095825195, 0.5316831469535828, -0.5946437120437622, 1.0271447896957397, 0.6682665944099426, 0.4896214008331299, 4.238163948059082, 5.477032661437988, 5.4593658447265625, 2.89487886428833, 2.2298309803009033, 1.2576489448547363, -1.4362196922302246, -1.7783048152923584, 23.006303787231445, 2.635124921798706, -1.8476576805114746, 23.672889709472656, -1.576324224472046, 3.035978078842163, 0.49070706963539124, 23.099151611328125, -1.6332123279571533, 23.379507064819336, 0.6533398032188416, -1.5849616527557373, -1.5178229808807373, 15.327449798583984, -1.8563828468322754, -1.212723731994629, 5.587122917175293, 23.728965759277344, -1.6350784301757812, -1.5789201259613037, -1.5228259563446045, 5.303459167480469, -1.6971521377563477, -1.270336389541626, 23.137109756469727, 4.97316312789917, 1.1481716632843018, 23.52309799194336, 2.692183017730713, 23.262081146240234, -0.08617061376571655, 22.814266204833984, 6.86894416809082, 6.228918552398682, 1.11784029006958, -0.3293018937110901, -0.24859152734279633, -1.5265660285949707, -0.9335545897483826, -1.7984635829925537, -0.010607057251036167, -0.9211414456367493, 23.173561096191406, 0.6109189987182617, -1.5318028926849365, -2.507990598678589, -1.018550157546997, 0.5910531878471375], [-3.1800551414489746, 0.5626654624938965, 0.16410627961158752, -0.8161041736602783, -0.46907055377960205, 0.3038114607334137, 0.4626791775226593, -1.8541992902755737, 1.0271586179733276, 0.5332750082015991, 0.5929142832756042, -0.20872971415519714, 1.506959319114685, 0.935692548751831, -0.6001781821250916, 0.4846055805683136, 0.2503761947154999, -0.5865231156349182, -0.3133526146411896, 1.060835838317871, -1.3141642808914185, 2.2631726264953613, 1.3612172603607178, -0.3849192261695862, 0.5443001985549927, 0.046574246138334274, 1.2781621217727661, 2.032069206237793, 2.4112801551818848, -1.8516701459884644, 0.827814519405365, -0.5196250677108765, 0.06620483845472336, -0.006334323436021805, 0.5254538655281067, -0.3777260184288025, 0.7764882445335388, -2.7091064453125, -0.0731433779001236, -1.1009267568588257, 0.020195215940475464, 0.5449652671813965, -0.5695892572402954, -3.0043833255767822, -4.612161636352539, -2.453294277191162, -0.977446973323822, -0.23201507329940796, -0.7081320881843567, -0.5794641375541687, -1.0399001836776733, -0.9293176531791687, -3.113377809524536, -2.5303022861480713, -0.6779661178588867, -0.8418826460838318, -1.5572890043258667, 0.12574441730976105, 0.7338933348655701, 0.16903772950172424, -0.25715532898902893, 0.1304025799036026, -0.5873422622680664, 0.8035816550254822, -0.998430073261261, 0.011155043728649616, -0.30528128147125244, -0.25074443221092224, -0.7822641134262085, 0.9435213804244995, -0.9218849539756775, -0.9560889601707458, -0.1096600890159607, 0.8665630221366882, 1.3269083499908447, 0.2186032384634018, 0.16462063789367676, 1.776646614074707, 1.1768473386764526, -1.1034852266311646, -0.4292988181114197, 0.6603445410728455, -0.17410169541835785, 1.1648427248001099, -1.101831078529358, 0.7504317760467529, 1.8161495923995972, 0.5595558285713196, -0.6675874590873718, -0.7874784469604492, -0.49048465490341187, 1.2582515478134155, 2.645139455795288, -1.2973353862762451, 0.1705797016620636, -0.8790305852890015, -0.5109299421310425, 0.7178830504417419, 0.424684077501297, -0.4629998803138733, 0.9581691026687622, -2.294121742248535, 0.6879439949989319, -0.25628650188446045, -0.5860729217529297, -1.5136812925338745, -0.17647920548915863, -1.7307015657424927, -2.298942804336548, -0.5917977690696716, -1.780421495437622, -0.6633504033088684, 0.07784204930067062, 0.016759566962718964, -1.2569828033447266, 0.3980114459991455, -1.4481966495513916, -2.4983599185943604, -0.4329129755496979, 0.4673244059085846, -2.538207769393921, 1.6850577592849731, -1.0585966110229492, 0.1698419451713562, 0.1631946712732315, -1.0497524738311768, 1.2896543741226196, -1.17798912525177, -9.257588386535645, -4.907140731811523, 0.9021674394607544, -6.592717170715332, -6.7075347900390625, -4.104245662689209, -4.370054244995117, -8.229475975036621, -4.3024210929870605, -4.282630443572998, -2.785087823867798, -5.98219633102417, -1.1612024307250977, 1.7797322273254395, -10.358336448669434, -4.571398735046387, -1.4110594987869263, 1.6589435338974, 1.583019733428955, -2.959259033203125, -0.9891180992126465, -0.6521963477134705, 1.5421496629714966, -2.9979162216186523, -4.5994133949279785, 3.4752190113067627, -1.1322417259216309, 0.26599714159965515, 0.15925420820713043, -5.4940338134765625, -0.46336644887924194, -4.073105335235596, -6.818243503570557, 0.3538181185722351, -3.8692171573638916, 0.2336336225271225, 0.2426171749830246, -9.40518856048584, -5.8152899742126465, -8.296412467956543, -0.46690788865089417, -2.779921770095825, -3.6756591796875, -8.21263599395752, -13.129855155944824, -7.241692066192627, -7.152451992034912, -1.847303032875061, -4.763384819030762, -9.924867630004883, -1.9704489707946777, -8.20468807220459, -8.65722370147705, -10.290400505065918, -9.794224739074707, -6.616451263427734, -8.954365730285645, -10.126928329467773, -10.154558181762695, -3.371487855911255, -6.550022602081299, -11.107856750488281, -10.805442810058594, -7.866102695465088], [-1.0370585918426514, 0.1575738489627838, -0.3996316194534302, -0.3676871359348297, 0.012173629365861416, -0.18406933546066284, 2.0950887203216553, -0.00849686749279499, 0.10074586421251297, 0.8528973460197449, -0.37668436765670776, 0.869375467300415, 0.24458874762058258, 0.5126684904098511, 0.8819075226783752, 0.3373394310474396, -0.8238149881362915, 0.34085366129875183, -0.5037742853164673, 0.8153713345527649, 0.5445933938026428, 0.3380502760410309, -0.4107179343700409, 0.0826655924320221, -1.859999179840088, -0.8153749108314514, -1.5874208211898804, 3.0968844890594482, 0.6631336808204651, 1.53290593624115, -2.346353054046631, -1.0724027156829834, -0.787476122379303, 0.32434484362602234, 0.07966402918100357, -1.0447551012039185, 2.2686607837677, -3.475295066833496, 1.0800758600234985, 1.0710433721542358, 0.15877453982830048, 0.8163348436355591, -1.3813645839691162, 0.1427915245294571, -0.5495137572288513, 1.1143672466278076, -0.7087045311927795, -0.7710554003715515, 0.4938952326774597, -0.23328280448913574, -1.146903157234192, 0.5336588621139526, 2.4063665866851807, 2.1839959621429443, -0.7063754796981812, 0.8162516355514526, -0.9127395749092102, 0.8213121891021729, -0.21810883283615112, -0.056448135524988174, 0.8832606673240662, 0.33683741092681885, 0.49261805415153503, 2.2042076587677, 0.14034374058246613, -0.5007964372634888, 0.015408509410917759, 0.13172581791877747, 0.1640811413526535, 0.17992450296878815, 0.261859267950058, 0.40249118208885193, -0.5113313794136047, 1.0850497484207153, 0.2103251814842224, -0.6315932273864746, 0.202280193567276, -0.7806022763252258, -1.1186121702194214, 0.6389553546905518, -0.7445313930511475, 0.5971167683601379, -1.516501545906067, 0.33435705304145813, 0.7368485927581787, 0.32327014207839966, -0.1063356101512909, -0.32892414927482605, -0.17273156344890594, -1.694711446762085, -1.8986345529556274, 2.6687824726104736, 0.4880445897579193, 1.102813959121704, -0.32106703519821167, 0.16295944154262543, -0.2890884280204773, 0.21834759414196014, 0.045504841953516006, -1.3311220407485962, 2.5230350494384766, -1.9219471216201782, 0.5431172251701355, -0.2004966288805008, -0.6632637977600098, -0.11627768725156784, -1.3691272735595703, -0.11686282604932785, 0.3730608820915222, 1.8637315034866333, -0.783566415309906, -0.6685246229171753, -0.05091346800327301, -0.24831855297088623, -0.2407017946243286, 0.44845491647720337, 1.1470696926116943, -0.08881669491529465, -1.71980619430542, 0.8323252201080322, 0.05124570429325104, 0.262916624546051, -0.24612197279930115, 0.2752360701560974, 0.5314782857894897, 0.3686644732952118, 0.36128804087638855, 0.6870589256286621, 5.146111488342285, -1.5809712409973145, -0.09250710904598236, 6.62363338470459, 7.525115013122559, 9.727795600891113, 0.13509772717952728, 6.40345573425293, -1.2968757152557373, -1.8751842975616455, 9.888829231262207, -0.49423953890800476, 3.3816802501678467, 7.828260898590088, 7.9557414054870605, 8.17773723602295, -1.4157207012176514, 10.572184562683105, 6.513661861419678, 0.889252245426178, 8.775283813476562, 9.059844017028809, 7.0891594886779785, 6.1988935470581055, 2.5951974391937256, -1.8775241374969482, 4.3511857986450195, -0.20751912891864777, -0.15242378413677216, 0.17398808896541595, 5.404085159301758, 8.326380729675293, 2.981264591217041, -2.4097299575805664, 7.927988052368164, -0.237884983420372, -0.2924902141094208, 6.842586994171143, -0.3797934651374817, 1.2360981702804565, 2.653827428817749, 6.862016677856445, 8.503983497619629, -2.2747817039489746, 5.370147705078125, 2.26153826713562, 5.131314277648926, 6.7582879066467285, 0.07415211200714111, 4.536218643188477, 9.091351509094238, 9.541634559631348, 7.333359718322754, 6.668813705444336, 7.944445610046387, 9.291778564453125, 9.17723560333252, 3.7990245819091797, 5.232304096221924, 7.622880458831787, 6.203848361968994, 6.966256618499756, 9.202430725097656, 12.606736183166504], [0.46901246905326843, -0.20938332378864288, 0.06402222812175751, -0.06491297483444214, -0.04629666358232498, 0.8062219619750977, 0.8205297589302063, 0.4711451530456543, 0.006315070670098066, 0.2604144513607025, 0.21633805334568024, 0.17030978202819824, 0.4894694983959198, -0.23876702785491943, -0.5192885398864746, 0.18417011201381683, -1.006041407585144, -0.06966391950845718, -0.6930134296417236, -0.5806816816329956, 2.044447898864746, -0.10051775723695755, -0.22838957607746124, -0.6012426614761353, -2.035244941711426, -0.9046715497970581, -3.411386728286743, -0.03597474470734596, 3.0455775260925293, -0.8035587072372437, -0.8486900925636292, -0.4358628988265991, -2.559338331222534, -4.706776142120361, -1.8926184177398682, 2.7391269207000732, 3.4318103790283203, 1.425363302230835, -0.02413342148065567, 0.2707460820674896, -1.7475569248199463, -4.9358696937561035, -1.517759919166565, -1.460397720336914, -1.111330509185791, 0.19821150600910187, 0.4854394495487213, -0.6170339584350586, -1.7349815368652344, -0.8207469582557678, -1.883408546447754, -0.8267673850059509, -0.17539748549461365, 1.3346071243286133, -0.3034251928329468, -0.2183944284915924, -0.9187464714050293, -1.5077091455459595, 0.4077308177947998, 0.23646488785743713, 0.5798419117927551, 0.3742435872554779, 1.0277810096740723, 0.7249088287353516, 0.16667425632476807, -0.7425358295440674, -0.12764519453048706, -0.3966846168041229, 0.46206533908843994, -0.42848479747772217, 0.3555653691291809, -0.34490251541137695, -1.2023869752883911, 0.3926192820072174, 0.04624434933066368, 0.6777274012565613, -0.3520777225494385, -0.6791289448738098, -0.7767195701599121, 0.5536357164382935, 0.05778582766652107, 0.5597841143608093, -0.7091563940048218, -1.4215716123580933, 1.3331671953201294, -0.005266031250357628, -0.2577752470970154, -0.5261259078979492, -0.10569106042385101, -0.38101014494895935, -1.0033060312271118, 0.12555547058582306, 2.3582005500793457, 0.27324923872947693, -0.7837393283843994, 0.19287942349910736, -1.189704418182373, 0.26251646876335144, 1.0218701362609863, 2.241443395614624, 2.9601173400878906, 1.9380258321762085, -0.18825305998325348, 0.032254643738269806, -1.50995671749115, -0.7210963368415833, 0.30395177006721497, -0.6441680192947388, -1.0199404954910278, 0.5545517206192017, -0.25618046522140503, -0.8806020021438599, -0.26793766021728516, -0.18223655223846436, -1.0976418256759644, 0.517851710319519, -0.38002994656562805, 0.7203021049499512, 0.20598740875720978, 0.10371477156877518, 1.5548126697540283, -0.10368850827217102, 0.6822402477264404, -0.2613508105278015, -0.09773892909288406, 0.16142964363098145, 0.3512495756149292, -1.059037208557129, 1.9360358715057373, 5.761249542236328, 7.509274005889893, 9.325800895690918, 7.422717094421387, 8.428105354309082, 6.389763355255127, 3.649780750274658, 2.9531314373016357, 6.711015701293945, 7.736166954040527, 11.481282234191895, 9.795395851135254, 8.711077690124512, 2.767340898513794, 6.290500164031982, -1.1154485940933228, 9.272923469543457, 6.297727584838867, 8.758112907409668, 7.955599308013916, 9.158135414123535, 9.724117279052734, 8.029234886169434, 0.2670033276081085, 2.6731114387512207, -0.7067732214927673, -0.26018330454826355, -0.1583007574081421, 11.677112579345703, 4.836672782897949, 5.931077480316162, -0.029974371194839478, -1.7171300649642944, -0.06774751842021942, -0.24976855516433716, -0.24347713589668274, 10.387831687927246, 7.951525688171387, 5.539823055267334, -2.038914442062378, -2.1209285259246826, 0.4927113950252533, 1.9230079650878906, 6.4409942626953125, 9.905407905578613, 8.210334777832031, 7.8989996910095215, -0.38942795991897583, -1.1329463720321655, -0.20711684226989746, 10.849472045898438, 6.02247953414917, 7.43647575378418, 5.106747627258301, 6.833643913269043, -0.04116774722933769, 5.661910057067871, 4.090683937072754, 10.533048629760742, 8.230469703674316, 7.513544082641602, 5.1882548332214355, 4.5044145584106445], [0.510160505771637, 0.11435955762863159, -0.29691827297210693, -0.09569605439901352, 0.03512353077530861, -1.123425841331482, -0.5214861631393433, -0.2193632572889328, -0.28190046548843384, -0.0998000055551529, -0.2614718973636627, 0.34969910979270935, -0.12131442129611969, -0.45773303508758545, -0.5865982174873352, -0.5946419835090637, -0.5816237926483154, -0.25268927216529846, 0.6250380873680115, 0.2624201774597168, -0.610045313835144, 0.7528752684593201, 0.5997259616851807, -0.6792389154434204, -0.6836019158363342, 0.6623177528381348, 0.4216367304325104, 0.7509298920631409, 1.9911714792251587, -0.2894250154495239, 0.5452004671096802, -1.3720239400863647, 0.07883735001087189, -0.2235635370016098, -1.4317086935043335, 1.2499332427978516, -1.0621423721313477, -0.3919825851917267, -0.20620878040790558, 0.07058203220367432, -0.34337398409843445, -0.676877498626709, 0.13355855643749237, -2.090736150741577, -0.11902966350317001, 0.9501291513442993, -0.8873378038406372, -0.6492373943328857, -0.71392422914505, -1.1106326580047607, -0.11069206148386002, 1.0089972019195557, 0.2050323486328125, 0.011515052989125252, -0.7248790264129639, -0.5026655793190002, -0.04957643896341324, -0.46944475173950195, -0.6779220700263977, -0.29466548562049866, -0.9228363037109375, -0.6006032228469849, -0.9631530046463013, -0.39544549584388733, 1.081902027130127, -0.4161592125892639, 0.09113764762878418, 0.36511167883872986, 0.3167136311531067, -0.6873944401741028, -0.710177481174469, 0.8514093160629272, -0.38846948742866516, -0.24144811928272247, -0.06423788517713547, 0.7840174436569214, 0.5074790120124817, 0.13475251197814941, 1.0389230251312256, -0.20078378915786743, -0.3976612985134125, -0.2788375914096832, -0.2491672933101654, 0.12637026607990265, -0.0778471976518631, 0.22537720203399658, 0.14786826074123383, -0.2043752372264862, -0.019164174795150757, 1.1776859760284424, 0.5808833241462708, 0.867184042930603, 1.3034037351608276, -0.2656059265136719, -0.27866289019584656, -0.4629882872104645, -0.05193494260311127, 0.10752823948860168, -1.6849206686019897, 1.43691086769104, -0.9100781679153442, -0.4252259135246277, -0.03992115706205368, -0.08288025110960007, -0.2567320168018341, -0.1147407591342926, -0.40219083428382874, -2.373366355895996, -0.2962469458580017, 0.5445754528045654, 0.04132823273539543, -0.4517122507095337, -0.4431028962135315, -0.0637417808175087, 0.4531879127025604, 0.5608709454536438, -0.19428104162216187, 0.8497670888900757, 0.6695504188537598, -0.527031660079956, 0.9993494749069214, -0.6523922681808472, -0.16500289738178253, 0.10405918955802917, 0.008579534478485584, -0.8198860287666321, -0.8482247591018677, 0.7355827689170837, 1.4760222434997559, -2.2022018432617188, 1.6148231029510498, 2.8521180152893066, 3.4897589683532715, -0.6413879990577698, -2.0834202766418457, 2.4033026695251465, -2.3359131813049316, -1.4051750898361206, 2.483675718307495, 4.887505531311035, 7.209279537200928, 4.333325386047363, -1.3559867143630981, -2.033008098602295, -0.058973222970962524, 1.726077675819397, 5.546512603759766, 4.579766273498535, 5.5244269371032715, 6.406084060668945, 6.264666557312012, 1.5995162725448608, 1.8675236701965332, 5.5642242431640625, -0.4001041054725647, -0.19780009984970093, -0.16600483655929565, 5.1027679443359375, 6.48997163772583, 4.589511871337891, 1.0226105451583862, 6.88189697265625, 0.7973578572273254, -0.20164594054222107, -0.12514948844909668, 1.895424485206604, 3.4722189903259277, 3.0375444889068604, -0.2603648006916046, 3.179776906967163, 7.1239094734191895, 2.3093032836914062, -2.1039295196533203, 6.320314407348633, 3.584923505783081, 1.0477715730667114, -2.0139663219451904, -1.3840386867523193, 1.751299262046814, 5.014413833618164, 6.0312700271606445, 1.1149933338165283, -1.534775972366333, -2.164052724838257, 1.7318886518478394, -1.669370174407959, 0.41525325179100037, 0.9084662199020386, 2.6799275875091553, 0.005442600231617689, -2.04591965675354, 1.4916775226593018], [0.6873396039009094, -0.22382527589797974, -0.40011680126190186, -0.7124006748199463, -0.01055087149143219, -0.15156741440296173, -0.09014799445867538, 0.01253494992852211, -0.7447104454040527, 0.04383371025323868, -0.5118733644485474, 0.569383978843689, -0.3186226785182953, -0.1129123717546463, 0.9645274877548218, -0.33463603258132935, 0.6358711123466492, -0.3772602081298828, -0.6819095015525818, 2.0098395347595215, -0.30236780643463135, 0.5439420342445374, -0.5364920496940613, -0.5989561676979065, 0.726530134677887, -1.3727425336837769, -1.873887300491333, -0.20909084379673004, 4.310871601104736, -0.8388136625289917, -0.7586694359779358, -0.5256631374359131, 0.8269190192222595, 0.867953360080719, 3.0078325271606445, 2.007282257080078, 0.5407320261001587, -1.2052234411239624, -0.1822197586297989, -0.10628753155469894, -0.004387106280773878, 0.5070052146911621, 0.22232194244861603, -0.5738481879234314, -0.9285285472869873, -0.5875659584999084, -0.42871934175491333, -0.7815119028091431, 0.7277174592018127, -1.3870400190353394, 0.5149300694465637, 0.06427447497844696, -1.3247443437576294, -0.645697832107544, -0.13391827046871185, 0.16910167038440704, -0.1943572759628296, 0.6887915730476379, -0.2472417801618576, 0.8053775429725647, 0.2803744673728943, 0.06677292287349701, -1.0066195726394653, -0.05498215928673744, 1.0676559209823608, 0.2723807096481323, -0.3737214505672455, -0.4420187473297119, -0.37449920177459717, -0.3481694757938385, -0.7955672144889832, -1.2129076719284058, 1.304915428161621, -0.23470181226730347, -0.953468918800354, 0.6611682772636414, -1.2646205425262451, -0.8559560179710388, 1.1791796684265137, -1.1860082149505615, 0.3901904225349426, -0.6192148327827454, -0.5036161541938782, 1.4387651681900024, -2.5592360496520996, -1.0893977880477905, -0.21126295626163483, -1.0423049926757812, 0.9961938261985779, -0.39959651231765747, -1.5753086805343628, -0.637431800365448, 3.5071096420288086, -1.4511082172393799, -0.443197637796402, -0.4345360994338989, 0.12463383376598358, 1.016329288482666, 4.028080940246582, 2.334594964981079, 0.41506439447402954, -0.41092315316200256, 0.40226203203201294, -0.25324389338493347, -0.40344786643981934, 0.6722339391708374, 1.0434552431106567, -0.17501072585582733, -1.5121887922286987, -0.9437416195869446, 0.08651164174079895, -0.5292674899101257, -0.42139744758605957, -0.6570903658866882, 0.3386496305465698, 0.6145182847976685, -0.25004732608795166, -0.3372703194618225, 0.33353835344314575, 0.12603358924388885, -0.05107187479734421, -1.016481637954712, 0.10679776221513748, -0.9285337924957275, 1.3484582901000977, 0.31827083230018616, 1.6976109743118286, 1.2842622995376587, 0.9948294162750244, -0.8837760090827942, 4.421620845794678, -0.47168421745300293, -0.9468280076980591, -0.5622828006744385, -0.3764401972293854, -0.026214033365249634, 6.88151741027832, 1.0152980089187622, 2.42734432220459, -1.491965413093567, -1.0096551179885864, 1.2132896184921265, -0.3873043656349182, -0.5114805102348328, 6.192546844482422, 9.400257110595703, 7.969221115112305, 5.537680149078369, 7.672698497772217, 5.39026403427124, 3.111544370651245, -0.5992509126663208, 7.283209800720215, 7.99130392074585, 8.826899528503418, -0.18072324991226196, -0.18038374185562134, 9.444953918457031, 1.231048822402954, -1.469165325164795, 2.7602381706237793, 6.673644065856934, 4.637461185455322, -0.1368369162082672, -0.21066886186599731, 3.8205411434173584, 1.2264779806137085, -0.38412895798683167, 6.091236591339111, 5.193939208984375, 6.892801761627197, 5.36575174331665, 0.509972333908081, -0.5626152157783508, 6.656440734863281, 4.877363681793213, 3.699915885925293, 6.887111663818359, 3.709195613861084, 4.298088550567627, 7.900344371795654, 9.094597816467285, 1.7729301452636719, -0.7038179039955139, 3.2682018280029297, 2.9066405296325684, 6.1495041847229, 1.2685573101043701, 3.851308584213257, 7.515834331512451, 6.797788619995117, 1.5178923606872559], [-0.29850640892982483, 0.11297550052404404, -0.6478015780448914, 0.16566064953804016, 0.1834135502576828, 0.3559570014476776, -0.04239164665341377, -0.29136791825294495, -0.48419389128685, -0.174218088388443, -0.2237219661474228, 0.18419122695922852, 0.09827481955289841, -0.08347273617982864, 0.8836346864700317, -0.154524028301239, -0.9935782551765442, -1.3196650743484497, -1.6577309370040894, 0.5791032314300537, -0.3145270347595215, -0.36280208826065063, -0.48635149002075195, 0.057252269238233566, -0.7940564751625061, 0.3007924556732178, -0.7580150961875916, -0.6241592764854431, -4.182095527648926, 0.9832062125205994, 0.09677661955356598, -0.11318380385637283, -0.5007912516593933, 1.1259840726852417, 0.18550075590610504, -2.290362596511841, -1.8750401735305786, -1.0449093580245972, 0.20414942502975464, -0.1883549988269806, -0.009042021818459034, 0.7616798281669617, 1.050480842590332, 0.2186514437198639, 2.5358614921569824, 0.9119767546653748, 0.6405541896820068, -0.19443559646606445, -0.05010844022035599, -0.25709807872772217, 0.8976649641990662, 2.8671653270721436, 2.1758224964141846, 0.6303237080574036, 1.065511703491211, -0.2942062020301819, -1.863423466682434, 0.3169519603252411, -0.38577526807785034, 0.9360917806625366, 0.18430973589420319, 0.4580853581428528, 0.4854491651058197, -1.2471084594726562, -0.04137744754552841, 0.5001956224441528, 0.2509489357471466, 0.933186948299408, 0.10133857280015945, 0.9169964790344238, -0.7123768329620361, 0.2503644526004791, -1.1689308881759644, 0.8469823002815247, -1.1732871532440186, 1.0435844659805298, 1.2802307605743408, -0.5549972653388977, 0.257467657327652, -0.6385900378227234, -0.988382875919342, 0.0696183517575264, -1.319963812828064, 0.9655371308326721, -0.09212789684534073, 0.44819244742393494, 1.0850639343261719, -0.5127573013305664, -0.2538987994194031, 1.1435176134109497, -0.032308340072631836, -0.5620895624160767, -2.827695369720459, 1.833245038986206, 1.5571995973587036, -0.786577045917511, 0.24431641399860382, 0.13978351652622223, -1.2860313653945923, -3.2307658195495605, -2.527130126953125, -1.1080244779586792, -0.19942612946033478, 0.5959837436676025, -0.1221860870718956, 0.7380051016807556, 0.012715589255094528, -1.5483230352401733, 0.2094431072473526, -0.7480093240737915, -0.2848440408706665, 0.1155642420053482, 0.7839133143424988, 1.7577201128005981, 1.994994878768921, 0.3417077660560608, 0.26477915048599243, -0.603735625743866, 1.7250685691833496, 1.25397527217865, -1.0975841283798218, -1.3705416917800903, 0.3162742555141449, 0.034949224442243576, 0.9578713178634644, 0.6539112329483032, 0.8152998685836792, -0.7970537543296814, -9.996259689331055, -3.4674155712127686, -1.746196985244751, 0.07323414087295532, -1.0089046955108643, -10.034371376037598, -2.1963250637054443, -9.6994047164917, -6.787904262542725, -1.5184561014175415, -9.513259887695312, -8.106683731079102, -5.568948268890381, -10.624670028686523, -2.8106648921966553, -8.023719787597656, -6.02177619934082, -7.259699821472168, -6.689853668212891, -7.066493988037109, -10.732090950012207, -9.580296516418457, -9.247906684875488, -10.382076263427734, -7.903954982757568, -5.250690460205078, -5.831080913543701, 0.18975619971752167, 0.22912542521953583, -6.53843355178833, -8.157442092895508, -8.437923431396484, -8.951720237731934, -2.602417469024658, -8.101323127746582, 0.3080439865589142, 0.18969355523586273, -9.274555206298828, -9.157906532287598, -8.327442169189453, -4.659106731414795, -0.8399028182029724, 5.226920127868652, 0.5022749900817871, -10.025869369506836, 0.18868379294872284, -1.5481233596801758, -1.286824345588684, -9.941157341003418, -8.557255744934082, 4.327740669250488, 3.356532573699951, 1.0633574724197388, -4.0728230476379395, -7.7809367179870605, -8.065629959106445, -6.788652420043945, -12.710311889648438, -13.162209510803223, -10.718072891235352, -2.4236226081848145, 2.6759743690490723, -12.083893775939941, -8.617594718933105], [-1.0219101905822754, 0.28374382853507996, -0.9654501676559448, -0.7791633605957031, -0.5292869210243225, -0.8104658722877502, 1.0677361488342285, -0.6073325872421265, 0.6854665279388428, 0.3175402879714966, -0.7493046522140503, -0.2009226530790329, 1.480007290840149, -0.25118616223335266, 0.12199119478464127, 0.7052003145217896, -0.7413628697395325, 0.1650315672159195, -0.17702826857566833, -0.40710899233818054, -1.6538742780685425, 0.2215728759765625, -0.11463915556669235, -0.8740512728691101, -0.5624423027038574, 0.2839307188987732, -2.342872142791748, 3.2955222129821777, 3.377915620803833, -1.2275279760360718, 0.4125335216522217, -1.460861086845398, -0.4051439166069031, 0.3035740256309509, -2.6842293739318848, 3.523852586746216, 2.7604568004608154, -0.5485219955444336, -0.4330332279205322, -1.7368097305297852, -0.8366971611976624, -0.6130579113960266, -0.6552779674530029, -1.0891237258911133, -1.4634952545166016, -0.007609731517732143, 0.7984402775764465, -1.0700798034667969, 0.3703833222389221, 0.8013760447502136, -1.3836852312088013, 0.017743641510605812, 1.337888240814209, -0.4154320955276489, -0.3893181383609772, 0.5893054008483887, -0.7422229051589966, 0.1940317302942276, -0.3645954728126526, -1.1509082317352295, -0.7746161818504333, -0.4651486277580261, 0.5909948945045471, -1.4760538339614868, -0.5911261439323425, 0.18150335550308228, -0.30816277861595154, -0.4195884168148041, -0.29006874561309814, -1.0780893564224243, -0.3702213168144226, -0.6316813826560974, -0.0040275598876178265, -0.019854659214615822, -0.01379125565290451, 0.10371163487434387, 1.2755359411239624, 1.4420057535171509, -0.03560085594654083, 0.47091788053512573, -0.5205804705619812, 0.07024868577718735, 0.08963073790073395, -0.7899155616760254, -1.1011022329330444, 0.8075263500213623, -0.23297645151615143, -0.9734129309654236, 0.10614805668592453, 0.30681827664375305, -2.5133602619171143, 2.7715516090393066, 2.4200727939605713, -1.5625431537628174, 0.9709475636482239, -0.43579962849617004, 0.021822676062583923, 0.6578024625778198, -3.062671184539795, 2.7534232139587402, 2.0426018238067627, -1.1254875659942627, 0.7307757139205933, -1.3871370553970337, -0.6496114134788513, -0.43136066198349, -0.2503977417945862, -1.0782513618469238, -1.3949064016342163, 0.5350842475891113, 0.7954946756362915, -0.6818107962608337, -0.1028958112001419, -0.49560248851776123, -0.2590845227241516, 0.65757817029953, 0.5212409496307373, 0.9580004215240479, 0.19076991081237793, 0.31409111618995667, -0.47975239157676697, 0.5101977586746216, -0.2672169804573059, -0.10174145549535751, -0.8140610456466675, -0.5408147573471069, 0.3845089375972748, -0.9660897254943848, -12.107397079467773, -10.517413139343262, 0.3305685520172119, -9.301678657531738, -7.360320091247559, -5.859777927398682, -10.89208698272705, -12.625358581542969, -10.966001510620117, -11.66773796081543, 0.5258466601371765, -1.9785494804382324, -1.7491005659103394, 3.3528077602386475, -11.911892890930176, -10.44300651550293, -0.5572492480278015, -11.960792541503906, 2.339766502380371, -0.19312119483947754, 0.1485913097858429, 3.0463857650756836, -6.648804664611816, 0.3462158441543579, -9.58948040008545, -8.826281547546387, 0.711309015750885, 0.30605435371398926, 0.31397104263305664, -0.9175517559051514, -10.30813217163086, -6.839217185974121, -9.51351261138916, -7.304426193237305, -0.05970147252082825, 0.2627111077308655, 0.24569819867610931, 1.0534318685531616, -2.5977976322174072, -7.099846363067627, -0.5565800070762634, -10.88554859161377, 1.7746691703796387, 0.1418009102344513, 0.12309570610523224, 3.4570696353912354, -6.779779434204102, -1.2998055219650269, -11.716803550720215, -11.007243156433105, -12.108150482177734, -5.614432334899902, -0.20484499633312225, 3.465026617050171, -11.426057815551758, -8.931032180786133, -11.948881149291992, -10.168953895568848, -0.5704729557037354, -8.56406307220459, -7.96147346496582, -2.850722074508667, -9.117100715637207, -12.66994857788086], [2.0175819396972656, -0.7417197823524475, -0.6167330145835876, -0.8817402124404907, 0.8997282981872559, -1.1930090188980103, 0.8767552971839905, -7.0031232833862305, -0.6256146430969238, 0.32864996790885925, 0.5663949847221375, -1.63457453250885, 0.9793297648429871, 0.3293350636959076, -0.7655051946640015, 1.2798593044281006, -0.23692424595355988, -1.1679651737213135, 0.4550662040710449, 0.8353484869003296, -2.380157947540283, -1.7327598333358765, 0.5435811281204224, -1.3924187421798706, -0.23700043559074402, 0.21787871420383453, 1.8695359230041504, 2.151059150695801, -5.948963165283203, -1.7623817920684814, 1.090799331665039, 1.1348949670791626, -0.04995410889387131, 0.26961034536361694, -0.9982407093048096, -5.643167972564697, 1.9461891651153564, -1.585418939590454, -2.089280843734741, -1.1656248569488525, 0.029845992103219032, 0.20781512558460236, -0.42271843552589417, -2.1233785152435303, 3.0320448875427246, 0.024512460455298424, 0.5598600506782532, -0.42609530687332153, 0.2957349121570587, -0.6672623753547668, 0.7939416170120239, 0.29803478717803955, -0.6097095012664795, -1.0412659645080566, 0.25256356596946716, -0.8577707409858704, -3.8168954849243164, 0.028096726164221764, -0.5438746809959412, 0.4128352999687195, -0.17696234583854675, -0.3834855556488037, -0.5317543745040894, 3.0163707733154297, 1.177600622177124, -0.5293844938278198, 0.62980717420578, 0.11908160895109177, 0.2049998790025711, -1.443567156791687, 0.9338710904121399, -5.38679838180542, -0.6144999265670776, -0.7541478872299194, -1.132157564163208, -0.019438710063695908, -0.10498876124620438, 0.7434180974960327, 2.128892183303833, 1.2708874940872192, 0.3848697245121002, -0.7044997811317444, 0.43277713656425476, 1.1600595712661743, -2.9264960289001465, -2.123850107192993, 0.7436806559562683, -1.6841453313827515, 0.41302254796028137, 0.5084685683250427, 1.5318039655685425, 2.550743579864502, -6.157771587371826, -1.3137969970703125, 0.30051299929618835, 0.22732485830783844, 0.2757215201854706, -1.4065577983856201, -0.4834630787372589, -5.618950843811035, 2.0312693119049072, -0.8900703191757202, -0.23423609137535095, -0.20975083112716675, -0.17117901146411896, 1.2962008714675903, -1.5776509046554565, -2.080399990081787, 2.840880870819092, 0.1800026297569275, -0.6976944208145142, 0.8392268419265747, -0.07611918449401855, 1.8771686553955078, 1.5338435173034668, -0.5966852307319641, -1.1079164743423462, -0.2621735632419586, -0.8634255528450012, -0.8050297498703003, -3.0180108547210693, 0.11678437143564224, -0.275768518447876, 0.4226214289665222, 0.3241463601589203, 0.9471703171730042, -0.5357552170753479, 2.1195242404937744, -6.798653602600098, -9.559000968933105, -9.529479026794434, -11.321674346923828, -6.509769916534424, -8.054173469543457, -0.8931810259819031, -9.195394515991211, -8.860029220581055, -6.930355548858643, -5.312379360198975, -8.27542495727539, -5.003110885620117, -9.668360710144043, -3.0171797275543213, -0.6233789920806885, -8.170106887817383, -10.027933120727539, -5.743299961090088, -5.07725715637207, -12.44937515258789, -11.187793731689453, -10.72935676574707, -7.241628170013428, -8.926883697509766, -6.915561676025391, -7.2086896896362305, 0.08713673055171967, 0.13245953619480133, -12.807398796081543, -4.868566513061523, -5.155713081359863, -9.526823997497559, -3.1367902755737305, -10.990992546081543, 0.016676941886544228, 0.01366465538740158, -8.828207015991211, -10.132811546325684, -11.090174674987793, -4.064431667327881, -10.092633247375488, -10.4718599319458, -8.591694831848145, -4.397224426269531, -5.091394424438477, -4.294444561004639, -8.828045845031738, -2.9445459842681885, -4.637850284576416, -10.323589324951172, -7.070967674255371, -7.470776557922363, -9.054868698120117, -7.733205795288086, -9.909796714782715, -9.326316833496094, -3.501615047454834, -3.1151793003082275, -8.067939758300781, -7.5049519538879395, -7.478405475616455, -9.041357040405273, -6.741201877593994], [-2.77415132522583, -0.9971737861633301, 0.5660892724990845, 0.39086654782295227, 0.7579267621040344, 0.6575457453727722, 0.3892609775066376, 1.1650326251983643, -2.0920002460479736, -1.3630443811416626, 0.017796428874135017, 0.641093909740448, 1.3274731636047363, 0.4847800135612488, -1.705842137336731, -0.09764163196086884, -3.500227928161621, -4.052585124969482, 0.812094509601593, 2.200601816177368, 0.36430007219314575, -0.6391525864601135, 0.23676243424415588, -0.27085673809051514, -7.839925765991211, -3.8373613357543945, -3.139209508895874, -1.035054326057434, 0.7047264575958252, 2.0334157943725586, -0.016908783465623856, 0.15297405421733856, -8.195141792297363, -3.478895902633667, -2.8725638389587402, -0.908978283405304, 1.8240480422973633, 3.1645307540893555, -0.2172071784734726, 0.30018889904022217, -3.7029993534088135, -3.936734437942505, 0.15352509915828705, 3.2337112426757812, 1.6629031896591187, -1.0138828754425049, 0.9467763900756836, -0.19575344026088715, -2.1146504878997803, -1.2265223264694214, -0.06313485652208328, 0.2506702244281769, 1.9279327392578125, -0.07956554740667343, -1.5001983642578125, -0.22772105038166046, -2.456040382385254, -0.6859249472618103, 0.4106220602989197, -0.008037948049604893, 0.5565748810768127, 0.3442109227180481, 0.2118811458349228, 0.8715040683746338, 1.6134892702102661, 0.4679909348487854, -0.14949016273021698, 0.7327046990394592, -0.04179120063781738, 1.0251860618591309, 0.33021366596221924, -0.2802591025829315, -0.640639066696167, -2.297294855117798, -0.9579451680183411, -1.2112112045288086, 0.9517933130264282, 0.19080637395381927, -1.224492073059082, -0.1935686320066452, -0.6710209250450134, -0.24813547730445862, 0.9909651279449463, 2.0195348262786865, 0.3335447907447815, -0.04470114782452583, -1.0655426979064941, 0.6304880380630493, -1.2078505754470825, 2.310790777206421, -3.8794546127319336, -1.3490900993347168, 1.2221043109893799, 2.7530860900878906, 0.20531727373600006, -0.004447675310075283, -0.7723506689071655, 1.9006179571151733, -3.8639817237854004, -1.301498532295227, 1.687743902206421, 3.3437063694000244, 0.09893443435430527, 0.03644061088562012, 0.05116339027881622, -0.18081681430339813, 0.08774523437023163, 2.931333303451538, 2.1604716777801514, -0.8418766856193542, -0.0058343857526779175, 0.5673832297325134, -0.841948390007019, -1.8113560676574707, -0.3767736852169037, -1.3787078857421875, 1.0385125875473022, 0.30641937255859375, -0.788882851600647, -0.08689985424280167, 1.0643526315689087, 0.3253948986530304, -0.5847424864768982, 0.30563783645629883, 0.7422567009925842, 0.258462131023407, -0.13656315207481384, -0.3210166096687317, 8.882853507995605, 8.246097564697266, 6.446249485015869, 11.357760429382324, 11.107565879821777, 8.015692710876465, 6.49832820892334, 9.958345413208008, -3.0013246536254883, 5.075704574584961, 9.354856491088867, 11.115964889526367, 10.122523307800293, 6.961856842041016, 8.297887802124023, 4.953634738922119, -6.212590217590332, 2.835967779159546, 9.220823287963867, 10.510340690612793, 6.577731609344482, 14.30410099029541, 8.838432312011719, 6.612295627593994, -6.72876501083374, 1.9634430408477783, 10.695181846618652, -0.27251556515693665, -0.3504202663898468, 13.628153800964355, 11.785858154296875, 7.778388023376465, -6.706779479980469, 1.6465543508529663, 12.946584701538086, -0.30581721663475037, -0.2553721070289612, 15.609601974487305, 11.837780952453613, 8.096792221069336, -6.063137054443359, 4.237183094024658, 10.571864128112793, 11.304232597351074, 7.711406230926514, 15.803315162658691, 9.523484230041504, 7.230783462524414, -2.6942780017852783, 5.162135601043701, 10.328042984008789, 11.004059791564941, 10.703436851501465, 8.047277450561523, 7.047554969787598, 4.906167030334473, 9.288908004760742, 8.238907814025879, 5.911105155944824, 11.222198486328125, 10.515518188476562, 8.160930633544922, 6.479772090911865, 10.503032684326172], [-2.0212438106536865, -2.2368431091308594, -3.3795769214630127, -8.465456008911133, -8.626834869384766, -3.6839852333068848, -2.5203001499176025, -1.9964144229888916, -0.12010356038808823, -1.3462125062942505, -4.575360298156738, -4.24739408493042, -4.078299045562744, -4.915961265563965, -1.3452317714691162, -0.6768386960029602, -0.08709291368722916, -0.9999494552612305, 0.9252868294715881, -1.6652021408081055, -1.3251795768737793, -0.512516438961029, -0.6278228163719177, 0.45655694603919983, 1.0453810691833496, 0.7618297934532166, 2.0504589080810547, -1.5495668649673462, -1.514809012413025, 3.7404534816741943, -0.17046141624450684, 0.49065542221069336, 0.4624737501144409, 1.4757248163223267, 0.37844955921173096, 0.71978360414505, 1.9036784172058105, 1.0008325576782227, 2.476806402206421, 0.3665567636489868, 0.6823901534080505, 0.4255373477935791, -0.20614682137966156, 2.440302610397339, 2.4092893600463867, -1.4868179559707642, 0.07832211256027222, 0.21861998736858368, 0.2933293581008911, -1.6563715934753418, -0.7033786773681641, -0.023302694782614708, -0.4357307255268097, -0.20347212255001068, -1.7461097240447998, 0.18822765350341797, 1.352105736732483, -0.04469970613718033, -0.31028813123703003, 0.7544692158699036, 0.5523412227630615, -0.36668962240219116, 0.2814539074897766, 0.44726863503456116, 1.2358568906784058, -0.6094383597373962, -0.7422460317611694, -1.7234655618667603, -1.1452463865280151, -0.8467597365379333, -0.15911826491355896, 1.3392962217330933, -0.2704608142375946, -2.4607746601104736, -0.4082832932472229, 2.613217830657959, 2.6732215881347656, 0.047447096556425095, -1.722146987915039, 0.5501444339752197, -0.026484277099370956, -1.489384412765503, 0.3208579421043396, -2.724428415298462, -2.8385205268859863, -0.8223103880882263, -1.0008610486984253, -0.26986145973205566, 1.3320395946502686, -1.061387538909912, 2.4008991718292236, -1.6990257501602173, -1.666717767715454, 3.006582498550415, -1.1707994937896729, 0.4125927984714508, 0.4087464213371277, 1.4278407096862793, 0.13679929077625275, 0.7721758484840393, 2.1182191371917725, 1.241815209388733, 1.517641544342041, 0.587801992893219, 1.1978302001953125, 0.4073077440261841, 0.1849764585494995, 3.433021068572998, 2.691012382507324, -0.0974619910120964, 0.3801405429840088, 0.612191915512085, 0.22840678691864014, -1.341625690460205, -1.1024550199508667, -0.13236643373966217, -0.6268802285194397, -0.5130783319473267, -0.5645381808280945, -0.07112621515989304, -0.06511174887418747, -0.4598977565765381, 0.540403425693512, 0.11681269109249115, -0.3847162127494812, 0.6643252968788147, -0.7289247512817383, 0.006470550782978535, 8.295336723327637, -2.0927584171295166, -6.209946155548096, -7.484131336212158, -7.804837703704834, -6.077844142913818, -3.3794517517089844, 7.503696441650391, 7.810997486114502, 5.176000595092773, 1.9883731603622437, 2.9390032291412354, 3.3471765518188477, 3.065842628479004, 6.0741119384765625, 8.969287872314453, 5.66335916519165, 9.14380168914795, 7.295177459716797, 11.022714614868164, 12.086179733276367, 9.58614730834961, 9.548103332519531, 5.513921737670898, 12.233004570007324, 10.527238845825195, 9.315404891967773, -0.2717064619064331, -0.2987041473388672, 10.424147605895996, 10.861967086791992, 11.396875381469727, 10.693536758422852, 9.467604637145996, 8.239398956298828, -0.33495962619781494, -0.24556314945220947, 7.229221820831299, 11.617552757263184, 10.065664291381836, 7.359976768493652, 5.777700424194336, 12.986682891845703, 13.131190299987793, 14.191855430603027, 15.410662651062012, 6.53564453125, 6.79341983795166, 7.936163425445557, 6.297996997833252, 8.863687515258789, 10.980567932128906, 9.851235389709473, 9.802231788635254, 6.546712875366211, 7.667442321777344, 10.567327499389648, 5.6858649253845215, 6.618780612945557, 8.818995475769043, 7.857154369354248, 8.644305229187012, 4.463362693786621, 9.982383728027344], [2.722006320953369, 0.6269963979721069, -0.12505923211574554, 1.1670550107955933, -0.31178852915763855, 0.2273097038269043, -0.5077991485595703, -1.3916603326797485, 1.4268087148666382, 1.376997470855713, 1.2945367097854614, 0.6823745965957642, 0.5775505304336548, -0.07265777140855789, 0.8557505011558533, -0.8830034732818604, 0.315256267786026, 1.8942104578018188, 0.40668785572052, 5.759494781494141, -1.0889558792114258, 1.3244733810424805, -0.6742862462997437, 0.5970494151115417, 0.908656895160675, 1.3371700048446655, 1.2319271564483643, -4.384000301361084, 2.4780774116516113, 1.0129154920578003, -1.2139248847961426, -0.05773918330669403, -0.43624556064605713, -0.21520709991455078, -3.193105697631836, 2.2965755462646484, -7.06431770324707, -0.1269116848707199, 0.5137639045715332, -0.2534828782081604, -0.5901195406913757, -0.12519758939743042, 0.3576107919216156, -0.11171505600214005, -1.8648840188980103, -2.276550769805908, -1.426051139831543, -0.696009635925293, -1.359161138534546, 1.0365195274353027, -1.272856593132019, -0.4295765161514282, -0.13418389856815338, -1.2797563076019287, 1.372917652130127, -0.6068241000175476, -1.5354081392288208, -0.34427934885025024, 0.21948082745075226, 0.2041691690683365, 0.6441903710365295, -0.21371518075466156, -0.06799247115850449, 0.055751584470272064, 0.6588565707206726, 0.822969913482666, 0.6440789699554443, 0.35897716879844666, 0.3958069980144501, 0.589788019657135, -0.660449743270874, -1.742234230041504, 1.0106598138809204, 0.2732597589492798, 0.08590608090162277, -0.10499638319015503, -0.413197785615921, 1.0575380325317383, 1.3357641696929932, 0.5575733780860901, 0.009710349142551422, 0.42789381742477417, 0.06803126633167267, 4.5333781242370605, -1.5770643949508667, 2.690107822418213, -0.752526044845581, -1.0343570709228516, 0.09785213321447372, 1.3391339778900146, 1.6926583051681519, -4.350977420806885, 1.9561467170715332, 0.3250304162502289, -1.1491024494171143, 0.35991448163986206, -0.7402806282043457, -0.5735902786254883, -3.320366859436035, 1.6030348539352417, -7.309421539306641, 1.154671311378479, 0.636393666267395, 0.18847733736038208, -0.6172719597816467, 0.1655072271823883, 0.3902837634086609, 0.1025082916021347, -0.10944093763828278, -2.3705506324768066, -1.1121491193771362, -1.0273224115371704, -0.6625264883041382, 1.1120500564575195, 0.13729998469352722, 0.3331758379936218, 1.0774434804916382, -1.6704628467559814, 1.0432095527648926, 0.6895558834075928, -0.9584839940071106, 0.330975204706192, -0.8704795837402344, -0.14420029520988464, 0.8961396217346191, -0.15977983176708221, -0.08513917028903961, -1.900420904159546, -12.103092193603516, 2.3703083992004395, 2.6844537258148193, -0.26858073472976685, -0.1044057086110115, -9.704936027526855, -8.220212936401367, -8.48556137084961, 2.8156049251556396, 4.491511344909668, 5.83870792388916, 1.8691320419311523, 1.2919961214065552, -8.322128295898438, -8.383255958557129, -8.897465705871582, 3.9553704261779785, 4.435344219207764, 4.776220798492432, -0.6546989679336548, -0.9674297571182251, -2.761167049407959, -6.36934757232666, -2.6433804035186768, -0.42369207739830017, 1.2945226430892944, -0.6686819791793823, 0.14588910341262817, 0.20117557048797607, -1.9720146656036377, -8.603198051452637, -2.680387020111084, -2.7654292583465576, -4.492108345031738, -4.559822082519531, 0.2106732428073883, 0.1907421052455902, -7.858070373535156, -8.418110847473145, -8.881488800048828, -5.418728351593018, -7.433684825897217, -6.902629852294922, -5.396576881408691, -9.3217191696167, -10.594880104064941, -4.2236008644104, -0.5832856893539429, -8.953337669372559, -7.466579437255859, -6.800414562225342, -7.771966934204102, -8.22081184387207, -7.949580669403076, -5.156294822692871, -2.839820623397827, -11.240680694580078, -7.901123523712158, -4.707273006439209, -4.763988494873047, -9.878717422485352, -5.240839958190918, -4.58147668838501, -10.435638427734375], [0.20120951533317566, 0.47191333770751953, 0.025154318660497665, 1.0877572298049927, -1.0102063417434692, -0.19696134328842163, -0.5535113215446472, 1.2310200929641724, -0.6001904010772705, -0.07398317009210587, -0.16434992849826813, 0.4448851943016052, 0.7361857295036316, 0.42853453755378723, 1.0383626222610474, -0.9482753872871399, 0.2252613753080368, 0.12423593550920486, -0.38146451115608215, 0.42012256383895874, -0.16223017871379852, 0.3680330216884613, 0.22444786131381989, 0.3030410408973694, 0.696476936340332, 0.021880311891436577, 0.4056446850299835, 0.3391623795032501, 1.621116280555725, -0.05022316426038742, 1.4522207975387573, 0.4729432165622711, 2.8446826934814453, 0.549166738986969, -0.7701818346977234, 2.0126404762268066, 1.2139431238174438, 0.4197356104850769, -2.073550224304199, 0.23926354944705963, 1.3469717502593994, 1.891343116760254, 1.4379751682281494, 0.42875924706459045, 0.058777980506420135, 0.15428811311721802, -0.4653826057910919, -0.44539129734039307, 1.8343615531921387, 0.7574896216392517, -0.4081054627895355, -0.13291652500629425, 0.40549543499946594, 0.16038641333580017, -0.12729330360889435, 0.2919325828552246, 0.37992602586746216, 0.06068067252635956, -0.3002839982509613, 0.09279154241085052, 0.29543620347976685, 0.6730219721794128, -0.9601516723632812, 0.20677229762077332, 0.13705529272556305, 0.18099753558635712, -1.3196989297866821, 0.7680059671401978, -0.5524818301200867, -0.9367626309394836, -0.1283288598060608, 0.36189010739326477, -0.8941245675086975, 0.032720860093832016, -1.2097880840301514, 1.0485963821411133, 0.6565127968788147, 0.7916726469993591, 0.747856616973877, -0.21032629907131195, 0.849962592124939, 1.3983274698257446, 0.5135958194732666, 2.588590621948242, -1.5385187864303589, -0.6807178258895874, -0.2736387252807617, -0.3877556324005127, 0.8044130206108093, -0.7252731919288635, -2.110060453414917, 0.24499189853668213, 1.9183958768844604, -1.3117997646331787, 1.4065324068069458, -0.9096018671989441, 1.4013959169387817, -0.7834049463272095, 0.6989993453025818, 2.5424997806549072, 1.1130560636520386, 1.6946628093719482, -1.0820870399475098, 0.4408004879951477, 0.7764627933502197, -2.4085800647735596, 0.5787167549133301, 0.16139981150627136, -0.9715867042541504, 0.5812792778015137, -0.20405106246471405, -0.03100326657295227, 2.7563719749450684, 0.08218182623386383, 1.368807315826416, -0.11273074150085449, -1.0247669219970703, 0.42955300211906433, -0.4506140649318695, -0.5518509745597839, -0.18902245163917542, -1.371545672416687, 1.049820065498352, 0.8750874996185303, 0.1470215618610382, -0.2846858501434326, 0.044657107442617416, 0.5398004055023193, 3.116529941558838, 2.6621077060699463, 2.2529475688934326, 4.217853546142578, 2.8676395416259766, 3.8749051094055176, 2.8279054164886475, 2.7991578578948975, 2.260673761367798, 3.2580230236053467, 1.225951075553894, 2.3868067264556885, 3.6690802574157715, 0.028743823990225792, 3.6970856189727783, 2.817927598953247, 4.245841026306152, 5.096216201782227, 4.3609232902526855, 3.2814979553222656, 3.0436432361602783, 4.534195899963379, -0.5398407578468323, 4.133899688720703, 3.9029009342193604, 3.027707815170288, 3.1145243644714355, -0.11473885178565979, -0.06993074715137482, 4.3055524826049805, 2.8713557720184326, 3.6347973346710205, -0.7694662809371948, -0.7616976499557495, 0.40793275833129883, -0.11773224174976349, -0.15130743384361267, 0.5234310626983643, 4.114924907684326, 1.5274425745010376, -3.0841264724731445, 2.2850711345672607, 3.5744619369506836, 0.5558075308799744, 4.010653018951416, 3.847886562347412, 4.64121150970459, 4.01671838760376, -0.02292385697364807, 0.88618004322052, 3.897143840789795, -0.13050107657909393, -0.4127129316329956, 1.077222466468811, 2.497143030166626, 2.2793383598327637, 3.0705771446228027, 2.0673506259918213, 5.098862648010254, 2.829584836959839, 2.8224425315856934, 3.317835807800293, 3.138031244277954, 3.2139596939086914], [1.8783519268035889, -2.0146453380584717, -0.32685768604278564, -1.6930421590805054, -1.7311643362045288, -3.5310511589050293, -1.9946767091751099, -1.3885324001312256, -0.6034634709358215, 1.2230076789855957, -0.43878433108329773, -3.5161471366882324, -5.551598072052002, -4.581910610198975, -1.6896259784698486, -1.361761450767517, -0.5580958724021912, -0.7107318043708801, 0.47448083758354187, 0.5662033557891846, -1.7073642015457153, -1.228308916091919, -0.7523058652877808, -0.4709495007991791, 0.1830974817276001, -0.08682619035243988, -0.6040847897529602, -2.283142328262329, -4.254261493682861, -1.4856407642364502, -0.7618936896324158, 0.08177062124013901, 0.5395876169204712, 0.6823330521583557, -1.484302043914795, -4.453171253204346, -1.8371022939682007, 0.2431667298078537, -0.16706599295139313, 0.2724669277667999, 0.31741568446159363, 0.04259314760565758, 0.950814962387085, -1.2689417600631714, -0.30653470754623413, -0.16443830728530884, 0.5729211568832397, 0.5019212961196899, -0.010526731610298157, -0.9226826429367065, -0.643497109413147, -0.6988185048103333, -0.3570566177368164, -0.46473315358161926, -0.36766958236694336, -0.29443907737731934, 1.3445122241973877, 0.20856863260269165, -0.11441386491060257, -0.19179201126098633, 0.8354329466819763, 0.03737000748515129, -0.023072347044944763, 0.9438514113426208, 0.959835410118103, -1.3347238302230835, 0.4361412525177002, -1.1682121753692627, -0.9754083752632141, -2.325502634048462, -0.45026540756225586, 1.8378313779830933, -0.7482485771179199, 0.07119154185056686, -1.5506688356399536, -0.31264787912368774, 0.6281179785728455, -1.5350799560546875, -0.41175419092178345, 0.34946396946907043, -0.4262900650501251, -0.3050729036331177, -0.6717115640640259, 1.1215910911560059, -0.19751229882240295, -0.3769620656967163, -0.03978758677840233, -0.40731871128082275, 0.02241087146103382, -0.3324231505393982, -0.8152125477790833, -2.2621614933013916, -4.371467590332031, -0.8536272644996643, -1.3428034782409668, 0.174137681722641, 0.3113662302494049, 0.6813325881958008, -1.0973347425460815, -3.8344335556030273, -1.8068320751190186, 0.10118696093559265, -0.8047761917114258, 0.017800314351916313, -0.16144351661205292, -0.9763017892837524, 0.8338925838470459, -0.43754661083221436, 0.3752996027469635, -0.16380943357944489, 0.8399094939231873, -0.04899442940950394, 0.6452053785324097, -0.3212689161300659, 0.3347499966621399, -1.366161823272705, -0.4969239830970764, -0.930718719959259, -0.14682063460350037, -0.03133504465222359, 0.1352587342262268, -0.8818926215171814, 0.41687366366386414, -0.34511592984199524, 1.7253038883209229, -0.07277928292751312, 0.13805784285068512, -0.33152440190315247, -3.831007719039917, -5.339140892028809, -2.6487390995025635, 1.3808687925338745, 3.460484504699707, -0.912708044052124, 1.858439564704895, -2.563357353210449, -6.458118438720703, -4.6084675788879395, -6.886839389801025, -2.2450475692749023, -0.49013012647628784, 3.0452699661254883, 2.276909589767456, -6.6070098876953125, -7.416813850402832, -4.99340295791626, -6.865446090698242, -6.8858642578125, -6.619790554046631, -2.9949147701263428, -3.277121067047119, -5.5160040855407715, -6.359607696533203, -6.454324245452881, -8.66750431060791, 0.09900276362895966, 0.05538833141326904, -5.015364646911621, -7.362214088439941, -5.896726608276367, -5.9448418617248535, -7.798624038696289, -8.963910102844238, 0.12449875473976135, 0.09029510617256165, -7.9557671546936035, -8.004761695861816, -5.551137924194336, -7.913340091705322, -8.090539932250977, -6.1296491622924805, -7.808040142059326, -5.458558082580566, -8.3880615234375, -7.064362525939941, -7.342278480529785, -6.510129928588867, -6.510332107543945, -7.51984977722168, -7.766119003295898, -8.161032676696777, -7.699498176574707, -6.517334461212158, -5.621998310089111, -6.03936767578125, -7.421215057373047, -5.974976062774658, -5.749536514282227, -8.044045448303223, -6.433060646057129, -6.55220365524292, -5.460095405578613], [-1.189159631729126, -1.353868842124939, -0.29740774631500244, -0.6354561448097229, -0.32682886719703674, -0.43152379989624023, -0.01267010997980833, -2.797370433807373, -0.10687658190727234, -0.1552342027425766, -0.08261072635650635, -0.08629759401082993, -0.7971588969230652, 0.38877928256988525, -1.1907577514648438, 0.5418376922607422, -0.2427167296409607, 0.7920506596565247, -2.6358823776245117, -4.578542709350586, 0.415317177772522, 1.7300951480865479, 0.6319718360900879, 0.8455405831336975, 1.4626609086990356, -0.5816707611083984, -4.22227144241333, -2.0285727977752686, 1.738755702972412, 1.8458560705184937, 2.256683111190796, 1.2745826244354248, 0.15358513593673706, 0.7408939003944397, -1.6370759010314941, 0.698011577129364, -2.6505680084228516, 1.1387596130371094, 4.129647254943848, 1.6481637954711914, 0.5034043788909912, -0.1928345412015915, -0.6242594718933105, 0.059413593262434006, -0.6756526827812195, 4.035678863525391, 3.658402919769287, 1.4548511505126953, 0.32050299644470215, 0.3048790395259857, -1.354552149772644, 0.3940976560115814, 0.7525901794433594, 2.4608347415924072, 0.922340452671051, 0.7271386384963989, -1.2915961742401123, -0.8288237452507019, -0.8614659905433655, -0.8338062763214111, -0.7773370146751404, -0.5835243463516235, 1.150078296661377, 2.085980176925659, 0.5204083323478699, -0.8447211384773254, 0.3094492554664612, -0.307533860206604, -0.9030004739761353, 0.10905192047357559, -0.21533453464508057, -1.8787012100219727, -0.45800673961639404, 0.5089272260665894, 0.4646207094192505, 0.7941662669181824, -0.17597270011901855, 0.6398317813873291, 0.3884507417678833, 0.45085540413856506, 0.32536929845809937, -0.4154549837112427, -1.8099647760391235, -3.9271936416625977, 0.05661195144057274, 1.0856804847717285, 1.0185153484344482, -0.04104357212781906, 0.6762387156486511, 0.04386477172374725, -3.2262659072875977, -1.8098443746566772, 1.5699468851089478, 0.3604895770549774, -0.11370980739593506, 1.442353367805481, 0.3345296382904053, 0.9207134246826172, -0.4576575458049774, 1.089143991470337, -4.021938323974609, -1.2968188524246216, -0.6073011755943298, 1.6284688711166382, 1.1437149047851562, -0.3040026128292084, 0.02795536443591118, 0.6589751243591309, -1.8337910175323486, 0.3666960597038269, 0.9282922148704529, 1.687979817390442, 0.10167846083641052, 0.6719469428062439, -0.5664739608764648, 2.190469980239868, -0.14681169390678406, -0.19095739722251892, 0.6910306811332703, 0.42552268505096436, 0.3777323365211487, -0.8180391788482666, -0.9158424735069275, -1.0433598756790161, 1.0104159116744995, 0.3233192563056946, 1.3193399906158447, -1.0594652891159058, -11.01379108428955, -7.283738136291504, -12.250163078308105, -11.579843521118164, -9.813437461853027, -7.2632060050964355, -8.651530265808105, -4.916109085083008, -7.630492687225342, -3.5010406970977783, -11.238380432128906, -11.471861839294434, -9.251687049865723, -6.641655921936035, -8.590055465698242, -12.241390228271484, -10.39632511138916, -12.574856758117676, -15.992609024047852, -14.998830795288086, -7.939667224884033, -0.7978230118751526, -4.964720726013184, 2.0401365756988525, -4.738653659820557, -10.209959983825684, -16.089197158813477, 0.2701030969619751, 0.39148831367492676, 1.6465939283370972, 4.334709167480469, 0.7838172912597656, -3.3504412174224854, -7.732414245605469, -12.678231239318848, 0.2884567975997925, 0.3857320547103882, 2.475034236907959, 3.131180763244629, 3.574169874191284, -9.168798446655273, -14.565925598144531, -10.475435256958008, -8.773093223571777, -1.0482580661773682, 4.35761022567749, 3.70809268951416, 2.574989080429077, -5.526098251342773, -5.481158256530762, -12.477619171142578, -7.92463493347168, -7.7639665603637695, -3.106133460998535, -0.6029952168464661, 2.0849087238311768, -10.87949275970459, -8.900813102722168, -11.072721481323242, -11.576593399047852, -8.554020881652832, -5.617558479309082, -6.132328510284424, -1.8672410249710083], [-2.3498189449310303, 0.5975462794303894, -1.7150354385375977, 1.183174967765808, -1.3517855405807495, -0.4107649028301239, -0.7000386118888855, 0.9537282586097717, 1.1203182935714722, 0.29664304852485657, 0.16368229687213898, 1.9159047603607178, -2.576317310333252, 1.6817355155944824, -0.18991395831108093, 0.36328253149986267, -1.47710382938385, -0.24006886780261993, -0.8980490565299988, -0.32463517785072327, -1.2176262140274048, 1.1881216764450073, -1.8038487434387207, 0.15442818403244019, 1.17983877658844, 2.0719223022460938, 0.15850929915905, -7.803205490112305, 1.1088836193084717, 1.521069049835205, 1.061393141746521, 0.823093831539154, -1.7984771728515625, -2.4629294872283936, -0.9024596214294434, 2.3498270511627197, -5.069942951202393, 0.217606320977211, -0.6798233985900879, -0.21319355070590973, -0.4208964705467224, 1.2154438495635986, 0.7976866364479065, 2.0156404972076416, -0.0250466987490654, -1.3843762874603271, -0.19209052622318268, 0.2011515200138092, -0.8932974338531494, 0.26602116227149963, -1.6911206245422363, 0.4283571243286133, -0.4008755087852478, 0.019392920657992363, 0.844372570514679, -0.5431303977966309, 1.1935409307479858, -0.31889915466308594, 0.4435115158557892, 0.6562938094139099, 0.2569544315338135, -0.1338397115468979, -0.18500228226184845, -2.6469056606292725, -1.6433371305465698, 0.7180163860321045, -1.162801742553711, 0.4352315366268158, -0.5789329409599304, 0.8948267102241516, -0.5223992466926575, -0.04907644912600517, 0.5044344067573547, 0.2285674512386322, 0.1265120953321457, 0.7850984334945679, -0.4691479206085205, -0.6152716279029846, -0.5957281589508057, -0.6788955926895142, -0.8188040852546692, 0.21866361796855927, -0.301725298166275, -0.7285053730010986, -0.7925114035606384, 1.2244542837142944, -0.6695631146430969, 0.16145092248916626, -0.05190021172165871, 1.0080002546310425, -0.1220473200082779, -8.146821975708008, 0.8496734499931335, 1.5984724760055542, 0.2602296769618988, 0.12591294944286346, -0.22263850271701813, -0.8818380832672119, -0.6028019189834595, 1.500496745109558, -4.447743892669678, 0.38784560561180115, -0.23830237984657288, 0.06293599307537079, 0.8959082961082458, -0.2892281413078308, 0.7417622804641724, 1.6336805820465088, 0.8510295748710632, -2.6115200519561768, 0.514136552810669, 0.22344444692134857, -0.9546538591384888, -0.8491808176040649, -0.11619866639375687, 0.16478142142295837, -0.9920514822006226, 0.005088554695248604, 1.0650410652160645, 0.7460184693336487, 1.3253779411315918, -0.9615494012832642, 0.03020332381129265, 0.3066152334213257, 0.5910036563873291, -0.041327621787786484, 0.9068490266799927, -2.713764190673828, -6.7844743728637695, -4.191021919250488, -6.118810653686523, -2.617920160293579, -8.609465599060059, -7.287515640258789, -6.920053005218506, -5.599559307098389, -1.9790716171264648, -4.940937042236328, -6.875412940979004, -2.160839796066284, -6.899251937866211, -2.242379665374756, -6.318833351135254, -6.813982963562012, -5.616703033447266, -7.106446743011475, -8.331573486328125, -6.852024078369141, -7.365804672241211, -4.28317403793335, -7.615680694580078, -5.6587419509887695, -2.710198163986206, -2.130855083465576, -7.323360919952393, 0.06257627159357071, 0.1578039526939392, -4.753124237060547, -4.5494208335876465, -3.766239643096924, -8.463614463806152, -6.639528274536133, -5.935008525848389, 0.0667935237288475, 0.13798445463180542, -7.325494766235352, -7.814235210418701, -7.763437271118164, -5.34244441986084, -2.210360527038574, -3.5255415439605713, -3.419048547744751, -8.289939880371094, -7.8358588218688965, -6.939865589141846, -6.157230854034424, -7.096446990966797, -6.187064170837402, -6.9919281005859375, -4.397707939147949, -7.138951301574707, -8.75343132019043, -2.079474449157715, -4.5981645584106445, -5.540831565856934, -6.7951884269714355, -3.8082082271575928, -4.205419540405273, -6.157619953155518, -5.767264366149902, -4.236506462097168, -7.597865581512451], [-2.253455638885498, 0.4341089725494385, -0.7134754657745361, -0.23143191635608673, 0.33572399616241455, -0.4697529375553131, 0.20786382257938385, -1.9505761861801147, 0.23429718613624573, 0.14386917650699615, 0.7420655488967896, 0.5216253399848938, 0.5247471928596497, 0.8092167973518372, 0.12938947975635529, 0.3638963997364044, -0.402660071849823, 0.7404125332832336, 0.9511874318122864, 0.11397872120141983, -0.2539030909538269, 0.8132058382034302, 0.7187091112136841, -0.6355599761009216, 0.16191299259662628, 0.4000038206577301, -0.011480956338346004, 0.19200269877910614, 0.678694486618042, 0.36387842893600464, 0.14768344163894653, 0.2226848006248474, -0.0927712544798851, 0.10883580148220062, 0.29753372073173523, 0.4116882383823395, -0.21783189475536346, 0.05153847113251686, 0.24056364595890045, 0.0417044572532177, -0.3842460811138153, 1.0078552961349487, 0.8922507166862488, 0.5565085411071777, 0.00978282280266285, 0.2705705463886261, 0.7127975225448608, -0.3573884665966034, 0.42481645941734314, 0.4676770567893982, 0.9109961986541748, 0.39831048250198364, 0.46853911876678467, 0.7458235621452332, 0.42413192987442017, 0.33180585503578186, -1.9845588207244873, 0.7026386260986328, -0.711594820022583, -0.0730471983551979, 0.12472247332334518, -0.3590810000896454, 0.21073246002197266, -2.384568452835083, -1.2439571619033813, 0.6645659804344177, -0.19928139448165894, -0.09700711816549301, 0.0882105901837349, 0.06523352861404419, 0.6519185900688171, -0.9957571029663086, 0.5232400298118591, 1.2874747514724731, 0.6816772818565369, -0.43086010217666626, 0.41713133454322815, 0.340554803609848, 1.0947599411010742, 0.5209091305732727, -0.21682396531105042, 0.34390774369239807, 0.8076291680335999, -0.19091106951236725, -0.13344532251358032, 0.4942896366119385, 0.5779401063919067, -0.2475026696920395, -0.008289440535008907, -0.22229363024234772, -0.3012121915817261, 0.07565736770629883, 0.657400906085968, 0.1096709668636322, -0.01038305088877678, 0.4290303587913513, 0.43581169843673706, -0.07773317396640778, 0.10568104684352875, 0.6215051412582397, -0.035957079380750656, -0.5514678359031677, 0.0740664154291153, 0.28238600492477417, -0.45920589566230774, 0.23646363615989685, 0.774794340133667, 0.536355197429657, -0.24076838791370392, 0.36570465564727783, 0.1930788904428482, -0.3852381110191345, 0.7013959884643555, 1.1959524154663086, 0.500580906867981, -0.2870485186576843, 0.014657439664006233, 0.8113398551940918, 1.5533827543258667, 0.8244421482086182, -1.418553352355957, 0.6200851798057556, -0.33577200770378113, 0.1873917430639267, 0.2724825441837311, -0.2726297676563263, -0.04245351254940033, -1.1848236322402954, 2.560871124267578, 4.330622673034668, 2.4139175415039062, 1.379468321800232, 1.2702908515930176, 0.9981944561004639, 3.794343948364258, 2.505570650100708, 4.027952194213867, 4.857570648193359, -3.670412063598633, -0.5781246423721313, -1.4626283645629883, -4.979308128356934, 4.329238414764404, 4.038354396820068, 2.319535970687866, -4.1775102615356445, -0.9277122616767883, -5.955290794372559, -3.7385787963867188, -2.3927042484283447, -5.4488654136657715, 2.320180892944336, 1.7396482229232788, -6.655031681060791, -0.49281635880470276, -0.36936914920806885, -0.410420298576355, -3.3291268348693848, -2.968801975250244, 3.0399646759033203, 1.460972547531128, -6.745810031890869, 1.8994203805923462, -0.42813247442245483, -0.34147316217422485, -0.9019873142242432, 0.08541116863489151, 1.437390923500061, 1.8269178867340088, -4.040205001831055, -3.4512994289398193, -4.64864444732666, 0.22703158855438232, -5.562652111053467, -4.401333808898926, 2.0698745250701904, 4.177813529968262, 4.420876979827881, -2.8935558795928955, -0.3462771475315094, -0.2298082709312439, -2.967390775680542, 4.395743370056152, 3.94244122505188, 2.78334379196167, 4.284350395202637, 1.7222059965133667, 1.045760989189148, 1.2387959957122803, 2.4702370166778564, 3.703873634338379, 2.5425806045532227], [-1.4868303537368774, -0.05551069602370262, -0.3325400948524475, 0.05785297229886055, -0.36268529295921326, -0.3234410583972931, 0.040759287774562836, -0.721897304058075, -0.8601667284965515, -0.8013178706169128, -0.1845577210187912, 1.0331040620803833, 0.14943619072437286, -0.4792554974555969, -0.4495375156402588, -0.13268133997917175, -0.11603560298681259, -0.03464353457093239, 0.48319563269615173, 0.5569798350334167, 0.18968184292316437, -1.1760722398757935, -0.01756671629846096, -0.9330358505249023, -0.42261478304862976, 0.425626277923584, -0.762677013874054, -0.5995068550109863, -0.8049759864807129, 0.22120504081249237, 0.43576356768608093, -0.3775792121887207, -0.4580443799495697, 0.2092149555683136, 1.1423540115356445, -1.5364224910736084, -1.1166648864746094, 0.27260926365852356, 1.02049720287323, -0.12598663568496704, -0.15350492298603058, -0.1221117153763771, -0.06591226905584335, -0.23340080678462982, -0.14134235680103302, 0.1754927635192871, 0.5002109408378601, -0.5085110664367676, 0.12626424431800842, -0.6214287877082825, -0.238988995552063, 0.495981365442276, 0.6338344216346741, 0.12783817946910858, -0.8246059417724609, -0.33846142888069153, -0.8809497356414795, 0.06209167093038559, -0.6555792093276978, -0.2077600061893463, -0.29845118522644043, -0.13066865503787994, -0.3043469786643982, -1.1033297777175903, -0.0609709806740284, -0.10032782703638077, -0.6311558485031128, -0.11585523933172226, -0.36250177025794983, -0.8660649657249451, -0.11103976517915726, -0.18415461480617523, -0.4439353048801422, -0.04327705502510071, 0.3965933918952942, 0.5873949527740479, -0.2432273030281067, 1.2424041032791138, -0.030523141846060753, -0.2504202723503113, -0.7788919806480408, 0.2868114709854126, -1.2512099742889404, 2.191399574279785, 0.6221606731414795, -0.8019238114356995, 0.07826632261276245, -0.6494921445846558, 0.18911941349506378, 0.7372915744781494, -0.6643028259277344, -0.5607814788818359, -2.0695836544036865, 0.22010961174964905, 0.19871141016483307, 0.08570574223995209, -0.2576124966144562, 0.33439865708351135, 0.9796265363693237, -0.6470353007316589, -1.0355792045593262, 1.466516375541687, 0.022087231278419495, -0.16736865043640137, -0.5813003182411194, 0.3320709764957428, -1.9568616151809692, 1.608299732208252, -0.6614961624145508, -0.9916099905967712, 1.1260862350463867, -0.9305394887924194, 0.038939181715250015, -0.7734029293060303, 0.6075644493103027, 0.3867989778518677, 0.03825538977980614, 0.5738143920898438, 0.2755463719367981, 0.1582643836736679, -0.3023664355278015, 0.14878426492214203, -0.8360776901245117, 0.0636371448636055, -0.26272299885749817, -0.7647255063056946, 0.007318011485040188, 0.24843661487102509, -0.4762309491634369, -3.9933085441589355, -1.4733965396881104, -1.9396514892578125, -2.162867307662964, -1.4514306783676147, -4.158410549163818, -0.15956106781959534, -4.05665922164917, -1.7719274759292603, -1.0913628339767456, -0.5133036375045776, -0.3194015622138977, -0.11405593901872635, -2.6284849643707275, -4.258256435394287, -1.5110580921173096, -0.6284291744232178, 0.2907668948173523, 1.612554669380188, 2.5915207862854004, -1.4868619441986084, -0.05211779847741127, -1.4723684787750244, -2.3895668983459473, 0.3788052201271057, 1.4808849096298218, 0.01340518333017826, 0.087711401283741, 1.429404377937317, -0.23966124653816223, -2.441286325454712, -1.9322134256362915, 0.6961891651153564, 1.5941413640975952, 0.07264404743909836, 0.11371760815382004, 0.03390488028526306, -0.9138357043266296, -2.0907318592071533, -1.8458441495895386, 0.17817066609859467, 0.23157835006713867, 1.8748074769973755, 1.8852964639663696, -0.017718814313411713, -0.7171598672866821, -1.3532363176345825, -4.734698295593262, -1.79765784740448, -0.8254127502441406, -1.0391550064086914, -0.8083902597427368, -1.6656584739685059, -2.0324819087982178, -4.654829978942871, -1.377023458480835, -4.853257656097412, -0.9850941896438599, -2.917060613632202, -3.214492082595825, -2.2089836597442627, -4.481682777404785, -1.5950498580932617], [6.494205474853516, 0.978229820728302, 4.0227155685424805, 3.3707053661346436, 2.919365406036377, 1.851028323173523, 1.617560625076294, -1.1699223518371582, -0.35015514492988586, 3.3827364444732666, 5.858953952789307, 4.871699810028076, 1.3478901386260986, -1.6136665344238281, -0.9764354825019836, 0.4358561038970947, -0.7500393390655518, -0.9156460762023926, 1.8810070753097534, 0.16422148048877716, 0.8007001876831055, -0.5263251066207886, -0.09854673594236374, 0.06928566843271255, -1.2487446069717407, -0.49073824286460876, 4.027608871459961, 1.8367575407028198, 4.630692005157471, -0.24636636674404144, 1.061475396156311, -0.47849053144454956, 0.2815171182155609, -0.17588511109352112, -1.0478147268295288, 2.734196662902832, 0.9765631556510925, 0.4617900848388672, -0.23989228904247284, 0.6432161331176758, -1.030913233757019, -0.11073773354291916, -1.4567205905914307, 1.5348578691482544, 0.45484301447868347, -1.61104416847229, 0.2058422714471817, -0.06301406770944595, 0.4636037349700928, 0.2833714783191681, 0.8766607642173767, -0.974985659122467, 1.2836436033248901, -0.3635975420475006, -0.08006114512681961, -0.7232728600502014, 0.08287043124437332, -1.308161735534668, 0.6577494144439697, -0.09883784502744675, 1.1046565771102905, -0.5100829005241394, 0.4725410044193268, -0.5021482706069946, 2.6161210536956787, 0.6854074001312256, 2.8680410385131836, 1.8777779340744019, 1.3255691528320312, -0.7632228136062622, -0.3095895051956177, -1.717181921005249, -1.1621731519699097, 0.19522830843925476, -0.24639785289764404, -0.9142445921897888, -0.18056675791740417, 0.595740556716919, 0.8778939247131348, 0.06908362358808517, 0.29190436005592346, 0.9713681936264038, 0.6118345260620117, 0.6510064005851746, 0.580687940120697, -0.8204843401908875, -0.9189196228981018, 0.17524820566177368, -0.7349091172218323, 0.17744451761245728, 2.038332939147949, 2.0684945583343506, 3.737792730331421, 1.4534409046173096, 0.5838032364845276, 0.06174081191420555, 0.4198026657104492, 0.36653265357017517, 0.1486712396144867, 2.580369234085083, 0.7608259320259094, -0.45587316155433655, 0.38735315203666687, 0.22536692023277283, -0.4444800317287445, -1.3911380767822266, -1.4053188562393188, 0.07013281434774399, 0.9096617698669434, -2.0097548961639404, 0.9624736905097961, 0.5013330578804016, -0.10831239819526672, 0.23971115052700043, 2.176304340362549, -0.12023957073688507, 1.8133587837219238, -1.3418980836868286, -0.07529197633266449, -0.7327951192855835, 1.25629723072052, -0.1746629774570465, 0.06708832830190659, -0.17412228882312775, -0.12547269463539124, -0.6148867011070251, 1.8085576295852661, 0.6910982131958008, 4.004408359527588, -5.958518028259277, -4.432987689971924, -4.148527145385742, -0.7602627277374268, 6.404461860656738, 3.531860113143921, 3.4570541381835938, 1.7729417085647583, 0.23475481569766998, -3.114875316619873, -0.5893277525901794, 7.113589763641357, 5.249309539794922, 4.351858615875244, 4.6466569900512695, 4.615214824676514, 4.821438789367676, 3.230454921722412, 6.55579137802124, 1.722711205482483, 0.8357002139091492, 1.6274077892303467, 1.9682176113128662, 4.447450637817383, 6.24835729598999, 3.257063388824463, -0.13003872334957123, -0.12802641093730927, 7.674903392791748, 6.0872483253479, 2.4944190979003906, 4.622447967529297, 4.606409549713135, 6.322545051574707, -0.1472846120595932, -0.03984047472476959, 2.082209348678589, 5.142568588256836, 8.013317108154297, 5.230662822723389, 1.2335973978042603, 7.66575813293457, 6.830186367034912, 6.56292724609375, 4.291042804718018, 7.38907527923584, 7.6019182205200195, 4.269082546234131, 2.3023416996002197, 7.274359226226807, 4.4228739738464355, 3.9506142139434814, 1.196176528930664, 4.598061561584473, 2.483720064163208, 3.9753499031066895, 0.830033004283905, 6.474654197692871, 6.64152717590332, 4.687389850616455, 0.33845654129981995, 4.219934463500977, 3.7453668117523193], [1.5333611965179443, 1.5850030183792114, 1.2980886697769165, -0.7682534456253052, 1.7828810214996338, 0.5243216753005981, -0.8280589580535889, -1.5090378522872925, 0.8128567934036255, 0.2748042047023773, 3.9989256858825684, 2.394235134124756, 0.6837202906608582, -1.2663891315460205, 0.19939227402210236, 0.358894407749176, 1.0776561498641968, 4.094084739685059, 7.533943176269531, 1.0394365787506104, 2.244020700454712, 0.36039477586746216, 0.2247643917798996, -0.07535925507545471, -0.7458263635635376, 2.014427661895752, 0.9591730237007141, -7.32819938659668, 5.479130268096924, -1.4328341484069824, 0.3587490916252136, -0.5027156472206116, 0.9441298246383667, 1.4580113887786865, 2.093285083770752, 4.417001724243164, -6.016368389129639, -1.0004655122756958, 1.036830186843872, -0.27868539094924927, -0.6324331760406494, -1.0798286199569702, -0.4523956775665283, -1.3185697793960571, -1.7849555015563965, -2.6329030990600586, 0.2875889241695404, -0.7951382994651794, -0.24482859671115875, -0.31211918592453003, 0.20203797519207, 0.16327066719532013, 0.9608619213104248, 0.43845319747924805, 0.7345043420791626, 0.3027375340461731, -1.634434700012207, 0.5382009148597717, -0.1068430244922638, -0.4689083993434906, -0.7419754266738892, -1.0838664770126343, 0.2841871678829193, -1.488448143005371, -1.7358558177947998, 0.542616605758667, 0.5626923441886902, 0.5380833148956299, 0.842449963092804, 0.8579418659210205, 0.3698725402355194, -0.4138404428958893, 0.7932631373405457, 0.48795196413993835, 1.751135230064392, -0.8265504240989685, -0.021747786551713943, -1.4043340682983398, 0.34602537751197815, 0.8772666454315186, 0.7037643194198608, 1.6345014572143555, 0.49688225984573364, -2.4722352027893066, 1.1731269359588623, -0.07126733660697937, 0.33922141790390015, 0.5524844527244568, 0.5220046043395996, -0.6112255454063416, -2.185732841491699, -7.609381198883057, 4.868720531463623, -0.21191644668579102, 0.9030197262763977, -0.3824111223220825, 0.7531440258026123, 0.013088591396808624, 1.0967086553573608, 4.22434139251709, -5.47714900970459, -1.1839721202850342, 0.9496315717697144, -0.9306055903434753, 0.7987102270126343, -1.3540480136871338, -0.2629547715187073, -0.7562912106513977, -1.0187361240386963, -1.9853825569152832, 0.4043901264667511, 0.416331022977829, 0.13240928947925568, 0.5479355454444885, 0.8077964186668396, 1.0198025703430176, 1.237802505493164, 0.21278943121433258, 0.2200421690940857, -0.7699230909347534, 0.41633227467536926, 0.6725971698760986, -0.08987367898225784, -0.5387084484100342, -0.7878400087356567, -0.011146795935928822, -0.7272357940673828, 0.7119286060333252, -0.09787991642951965, -4.192427158355713, -0.7158864140510559, 2.9022510051727295, -7.173903465270996, -2.56166410446167, -8.024422645568848, -6.066342830657959, -3.0629475116729736, 2.435655117034912, 5.446401596069336, 2.7375104427337646, -3.420757532119751, -9.94836139678955, -5.6938910484313965, -8.002518653869629, -2.306847333908081, 4.689709663391113, 5.56766939163208, 3.461305856704712, -5.890789031982422, -7.258032321929932, -10.23978042602539, -8.958828926086426, 1.488763451576233, 2.7835073471069336, 3.2039170265197754, 0.2400461584329605, 0.27681323885917664, -6.848596096038818, -6.6637654304504395, -7.353981971740723, -7.919816493988037, -3.998929262161255, -7.597014427185059, 0.23403336107730865, 0.31156596541404724, -11.333978652954102, -8.861668586730957, -8.424955368041992, -3.0721681118011475, -9.702482223510742, -8.699807167053223, -8.135844230651855, -11.552899360656738, -14.201882362365723, -10.836647033691406, -10.237024307250977, -9.027070045471191, -5.552633762359619, -9.364498138427734, -7.2760396003723145, -9.020008087158203, -11.127994537353516, -0.033648427575826645, -7.373190402984619, -6.6923604011535645, -7.503060817718506, -8.865851402282715, -6.395776748657227, -8.35295295715332, -10.479494094848633, -6.614130973815918, -10.45383071899414], [-0.2859955132007599, 0.37084680795669556, 0.3033343553543091, -1.0515421628952026, -0.05097653716802597, 0.14081060886383057, 0.32808396220207214, 0.5344874858856201, -0.22643692791461945, 0.5519492030143738, 1.2454323768615723, -0.040786534547805786, -0.014002645388245583, 0.39083173871040344, 0.1560618132352829, 0.7845339775085449, -0.22880421578884125, -0.728728711605072, -0.681768536567688, 0.0190871711820364, 0.2840276062488556, -0.6218106150627136, 0.29058900475502014, -0.03599800914525986, -0.03629545122385025, -0.20531253516674042, -0.9904866814613342, 2.190218210220337, 2.3585638999938965, 0.03520641103386879, 0.2743935286998749, -0.7484063506126404, -0.16702958941459656, 0.5341571569442749, 0.43043985962867737, 3.379420042037964, 2.6627037525177, 0.5120485424995422, 0.3070632815361023, -0.5155038237571716, 0.3729647397994995, 0.179709792137146, -0.9462190270423889, 0.871368408203125, 1.8374176025390625, -1.0573277473449707, 0.008308405987918377, -0.3842742443084717, -0.0038570016622543335, 1.2189531326293945, 1.8012800216674805, 2.404093027114868, 3.6312224864959717, 6.569948673248291, 6.051983833312988, 1.2421925067901611, 2.8617913722991943, 0.8942355513572693, 3.394669771194458, 3.1414201259613037, 7.351751327514648, 3.769566774368286, 2.604672908782959, 7.416562557220459, 0.07592496275901794, 1.4995568990707397, -0.21064691245555878, -0.8571994304656982, -0.28039515018463135, 1.3133059740066528, 0.009112515486776829, 0.7046541571617126, -0.4285672605037689, 0.9877956509590149, 0.1849842518568039, 0.46077075600624084, 0.6414509415626526, 0.7854400873184204, 0.7326087355613708, 0.3310692012310028, 0.8479173183441162, -0.20277903974056244, -0.5763686299324036, -0.46402233839035034, -0.4712662994861603, -1.0312012434005737, 0.30033159255981445, 0.02182372473180294, -0.09277394413948059, 0.6214584708213806, -1.5214831829071045, 2.203838586807251, 2.9299776554107666, 0.9054493308067322, -0.20449529588222504, 0.0319797545671463, -0.33398762345314026, 0.09067379683256149, 1.3526973724365234, 3.355640411376953, 2.8803162574768066, 0.1620168834924698, 0.8306700587272644, 0.4107430577278137, 1.0130646228790283, 0.981759786605835, -0.4139859974384308, -0.07479444891214371, 2.554197072982788, -1.399599552154541, 0.7781736254692078, 0.23567618429660797, -0.002041207393631339, 0.8141138553619385, 0.5787711143493652, 1.127060055732727, 0.28603896498680115, -1.596276879310608, -0.012213020585477352, -0.524196445941925, -0.3538578152656555, -0.08134093135595322, -0.26421889662742615, -0.5623523592948914, 0.7686530947685242, 1.1143126487731934, 0.9910937547683716, 2.4080517292022705, 2.9006354808807373, 5.037428855895996, 3.2697346210479736, 5.94591760635376, 4.84080171585083, 5.512516498565674, 3.160961389541626, 3.180316209793091, 3.9975719451904297, 0.5599060654640198, 4.00529146194458, 3.176391839981079, 5.4717864990234375, 6.2120561599731445, 0.5130560398101807, 5.826463222503662, 4.84053373336792, 6.156625747680664, 3.232884645462036, 5.48027229309082, 3.708350896835327, 1.1807899475097656, 2.268561601638794, 5.16961145401001, 4.208359241485596, 5.366738796234131, 3.800755262374878, -0.1072685718536377, -0.04512070491909981, 5.429205894470215, 2.727132797241211, 5.405432224273682, 3.442272663116455, 4.805271625518799, 4.939311981201172, -0.11657761037349701, -0.02791733667254448, 4.087996482849121, 6.193120002746582, 5.486416816711426, 5.287803649902344, 0.8733049035072327, 2.2444963455200195, 1.5002365112304688, 5.141448497772217, 1.5580929517745972, 4.241181373596191, 4.503123760223389, 3.633152961730957, 3.131340980529785, 4.449067115783691, 4.578495025634766, 1.682747483253479, 2.869258165359497, 0.9610913991928101, 4.721701622009277, 1.926690697669983, -3.022456169128418, -0.5396265983581543, -3.8901703357696533, -3.295269250869751, -5.25579309463501, -7.784958362579346, 2.722886323928833], [0.9872164726257324, 0.8208000063896179, -0.18132643401622772, 0.49529004096984863, -0.07337512075901031, 0.16887687146663666, 0.3822343051433563, -0.3597937226295471, 0.7790433764457703, -0.4945406913757324, -1.2152488231658936, 1.0940234661102295, -0.5117053389549255, 0.5109761953353882, -0.3861139118671417, 0.4905089735984802, 0.24487698078155518, -0.09208011627197266, -0.5052291750907898, 0.979050874710083, 1.082979440689087, 1.009016752243042, 0.7919481992721558, -0.033537786453962326, 0.14566665887832642, 0.4203225076198578, -1.8215930461883545, 0.6918982267379761, 0.34484827518463135, 0.23575331270694733, -0.35056978464126587, -0.3976072371006012, 0.37109702825546265, 0.15183643996715546, 0.9143583178520203, 0.605716347694397, 2.4083635807037354, 0.683343231678009, 0.1846047341823578, 0.4303593635559082, -0.5711109638214111, 0.458618700504303, -1.301476240158081, -0.02424403838813305, -1.7604856491088867, -0.0862431600689888, -1.1811645030975342, -0.1822914481163025, 0.37712422013282776, -0.40698105096817017, 0.1278540939092636, 0.9704388380050659, -1.0538585186004639, -0.7210612297058105, -0.6296247243881226, 0.003669619094580412, 0.13369148969650269, 0.03219301626086235, -0.520297110080719, 0.6175965666770935, 0.3109498918056488, 0.34675678610801697, 0.5861173868179321, 1.3679966926574707, 0.35352301597595215, 0.0436239056289196, 0.3848384916782379, -0.2775088846683502, 0.1397191435098648, 0.29469171166419983, 0.8093940615653992, 0.017117144539952278, 0.605975329875946, 0.07214253395795822, -0.7479116320610046, 0.4832187294960022, -0.2186734825372696, -0.08120322227478027, 0.7413857579231262, 0.9576976299285889, -0.13999426364898682, -0.29880568385124207, -0.35049644112586975, 1.1549246311187744, 0.4757595658302307, -0.7012163400650024, 0.10456788539886475, 0.029736792668700218, 0.30059874057769775, 0.2535690367221832, -0.8116602301597595, -0.2490479052066803, 0.34851402044296265, -0.6162300109863281, 0.3607529103755951, -0.5384609699249268, -0.5151012539863586, 0.5745424628257751, 1.1149349212646484, 1.0352790355682373, 2.8974356651306152, 1.1093463897705078, -0.36612212657928467, 0.5687378644943237, -0.16605927050113678, 0.2813900411128998, -2.090639114379883, -0.11442545056343079, -0.29029780626296997, -0.28548699617385864, 0.10881493240594864, 0.08688914030790329, 0.8742080330848694, 0.24315397441387177, 0.5403233170509338, 0.4082512855529785, -0.8611636757850647, -1.5304033756256104, -0.5932690501213074, -0.6105107069015503, 0.07658258825540543, -0.8410983681678772, -0.0872679054737091, -0.198336660861969, 1.0034877061843872, 0.39268237352371216, 1.170567274093628, 1.5902491807937622, 3.607032299041748, 3.9937708377838135, 1.1594678163528442, 3.7299137115478516, 2.1672818660736084, 2.2086973190307617, 4.747819423675537, 3.122420310974121, 2.706655502319336, 3.5951576232910156, 0.4548402726650238, 3.759537935256958, -0.35383903980255127, 1.7662159204483032, 3.9829938411712646, 5.110635757446289, 0.5381105542182922, 3.1768393516540527, 3.1737380027770996, 2.3123111724853516, 1.6496349573135376, 1.0850073099136353, 0.7655073404312134, 2.649838447570801, 3.130448341369629, 0.42533740401268005, 2.433889865875244, -0.0259262565523386, 0.009383230470120907, 1.902666449546814, -0.8433640003204346, 3.6070313453674316, 3.7779746055603027, 0.9137488603591919, 2.330547332763672, -0.10496214777231216, -0.10524020344018936, 3.4387271404266357, 3.8529651165008545, 4.534821510314941, -1.1469932794570923, 0.23649872839450836, 0.5183112025260925, 2.275327682495117, 1.969916820526123, 2.665360927581787, 4.5634355545043945, 2.725146532058716, 4.071785926818848, 3.0958423614501953, 0.059237290173769, 3.0143513679504395, 3.041520357131958, 4.957390785217285, 4.695118427276611, 3.5739994049072266, 3.7508304119110107, 3.2234253883361816, 3.9818882942199707, 4.4846110343933105, 1.4632594585418701, -1.3816584348678589, 2.08799409866333, 4.6731109619140625], [-11.17235279083252, 0.14793309569358826, -0.3143734335899353, -0.1595790833234787, 0.6398431658744812, -0.05742800235748291, -0.24598219990730286, 0.2024538815021515, 0.42728182673454285, -1.7200695276260376, -1.4454774856567383, -0.49999547004699707, -1.0840129852294922, 0.20339927077293396, -0.1736399084329605, 0.01646951213479042, -2.174403429031372, -2.8710997104644775, -1.1494793891906738, -1.8506909608840942, 0.23600465059280396, 0.40206196904182434, -0.33273327350616455, 0.05739491805434227, -1.166486382484436, -0.5565089583396912, -1.6251471042633057, 0.08525662124156952, -1.9904502630233765, -1.0680629014968872, 0.4513776898384094, 0.5567494034767151, -0.11113912612199783, 0.3482462167739868, 0.43843820691108704, 0.6177486181259155, -2.0808632373809814, 1.1528176069259644, -0.14588876068592072, -0.6228093504905701, -0.12550750374794006, 0.736531138420105, 0.9889674186706543, -0.23590484261512756, 1.1279040575027466, 2.1141443252563477, 0.062375932931900024, 0.6484951972961426, -0.2692957818508148, 0.07289131730794907, 0.23876284062862396, -0.2745991349220276, 0.1783529669046402, 0.0807904452085495, -0.9668157696723938, 0.20413687825202942, -0.3407537341117859, 0.5323565006256104, -0.26826608180999756, 0.1523650884628296, -0.45416688919067383, 0.2924443483352661, 0.4635884165763855, 0.932397723197937, -5.936501502990723, 2.53570556640625, -1.3359297513961792, -0.5047628879547119, 0.35258471965789795, 0.1952369064092636, -1.3104538917541504, 0.13295882940292358, 1.1990126371383667, 2.6702370643615723, -0.6747920513153076, -0.9282760620117188, -1.7929747104644775, 0.6323922276496887, 0.24348609149456024, -0.4302329421043396, -3.425649642944336, -0.30032697319984436, -0.4107446074485779, -0.9680253863334656, 0.9226186871528625, 0.4017321467399597, -1.4980701208114624, -0.681236743927002, -0.6144818663597107, -0.3079798221588135, -1.3809292316436768, 